{"layers":[{"out_depth":1,"out_sx":24,"out_sy":24,"layer_type":"input"},{"sx":5,"sy":5,"stride":1,"in_depth":1,"out_depth":8,"out_sx":24,"out_sy":24,"layer_type":"conv","l1_decay_mul":0,"l2_decay_mul":1,"pad":2,"filters":[{"sx":5,"sy":5,"depth":1,"w":{"0":-0.1756454260177528,"1":-0.22854585085342694,"2":0.43858845855926737,"3":0.033908544034676934,"4":-0.14265852209833363,"5":0.28450271047288767,"6":-0.0021073447586064213,"7":0.16441841100858767,"8":0.16899098274496346,"9":0.19514874137559757,"10":-0.30570892079713397,"11":0.06061290246345254,"12":0.2673977268706756,"13":0.5033437995590007,"14":-0.13020842457985732,"15":-0.21513790930263094,"16":0.4011790433485521,"17":0.2666922020250953,"18":0.10481308209237512,"19":0.05754160746878398,"20":0.132142052401896,"21":0.22076707138291077,"22":0.19417746232972088,"23":0.3023718407564033,"24":-0.0858060138181942}},{"sx":5,"sy":5,"depth":1,"w":{"0":0.45794956410434395,"1":-0.08514869657629244,"2":-0.2049554869318055,"3":-0.025122586638132265,"4":0.01962249565489829,"5":0.2210590909160957,"6":0.2819642734353523,"7":0.17731239427632636,"8":0.14726198184999711,"9":0.29176150304941323,"10":-0.09857831092112526,"11":0.3433519142806674,"12":0.047409963949813415,"13":0.10334698283484146,"14":0.4126778562533592,"15":0.20578609716205917,"16":-0.016324689379104355,"17":-0.15758527697089636,"18":0.07553543575773815,"19":-0.32511133664254616,"20":-0.3827145084952297,"21":-0.3305796211700044,"22":-0.2494468971698659,"23":-0.3311963017498611,"24":-0.16778638995587347}},{"sx":5,"sy":5,"depth":1,"w":{"0":-0.24611452211509793,"1":0.2315366446154505,"2":-0.13134293259358076,"3":-0.0032036896589630074,"4":-0.253659784866902,"5":-0.19961908992617095,"6":0.35582109049923794,"7":0.07787874857046578,"8":-0.09212197195895566,"9":0.0028906257264320694,"10":0.1784035735049073,"11":0.27818591049314595,"12":-0.008448375604398276,"13":-0.47407559530794297,"14":-0.12144890235640993,"15":0.3188078501168372,"16":0.4065895864881358,"17":-0.08539856125050153,"18":0.04441060136535964,"19":0.18209546985602662,"20":-0.1788063849941612,"21":0.1280202652680228,"22":0.04792935367681659,"23":0.08845675985746318,"24":-0.16637654174679262}},{"sx":5,"sy":5,"depth":1,"w":{"0":0.016170079306465798,"1":-0.11657936308609307,"2":-0.012473915433086647,"3":-0.307307934253259,"4":0.04275193676215185,"5":0.02903124134870394,"6":0.015257594842492197,"7":-0.06590828317255057,"8":0.5280160659893122,"9":0.2166596515754175,"10":0.5832861716374987,"11":0.07277850345178329,"12":0.2725277126290593,"13":0.3409823158600828,"14":0.18567352112392502,"15":0.01660770071605646,"16":0.3052724544349437,"17":0.005332924705452934,"18":0.21268800248420527,"19":0.21743926956466023,"20":-0.15632372547947407,"21":0.05106478757918882,"22":-0.06686253280088116,"23":0.3059092296200012,"24":-0.26171713253227397}},{"sx":5,"sy":5,"depth":1,"w":{"0":-0.020780906392257152,"1":0.1706950859597002,"2":0.4077599950636865,"3":-0.07630563335638048,"4":0.15793609373982312,"5":0.20823431547807625,"6":-0.010969461402997283,"7":0.19957874146986046,"8":0.36401526065441003,"9":0.16242829315295484,"10":0.1611706562159528,"11":0.303855098059168,"12":-0.10989024429984812,"13":0.09846900034973,"14":-0.1303121526624619,"15":0.09515011423009674,"16":-0.43745750863652244,"17":0.029017474375325345,"18":-0.3779982389060415,"19":-0.08052998067364626,"20":0.13899179750905144,"21":0.04309196681912285,"22":-0.2312638208057587,"23":-0.17244845779036558,"24":-0.2909080301839099}},{"sx":5,"sy":5,"depth":1,"w":{"0":0.16426659069512628,"1":0.23523735539272148,"2":-0.0029156142980161373,"3":0.12374020453310966,"4":-0.34171219794937896,"5":-0.29036252842262433,"6":0.05850501127633548,"7":-0.4673299752767995,"8":-0.49813754625866447,"9":-0.060710551529749114,"10":0.5922080126930082,"11":0.4489298486463559,"12":-0.20157683007634153,"13":-0.35078391775016765,"14":0.11078456428171617,"15":0.010679813320703703,"16":0.0019244468294078983,"17":-0.2271467275787972,"18":-0.4752937225854558,"19":-0.013941211666212273,"20":-0.10548701850800066,"21":0.3182581217803864,"22":0.12566969843728837,"23":0.20458239426098718,"24":0.12983443541428077}},{"sx":5,"sy":5,"depth":1,"w":{"0":0.2415505055074249,"1":0.4540333105010244,"2":0.33702812774712543,"3":0.3718987582844377,"4":-0.159055165996576,"5":0.4061359863704746,"6":0.40075372315611646,"7":0.37502817324126553,"8":0.32840285774444705,"9":-0.09877944024760774,"10":0.11676042013326145,"11":0.21729874648769806,"12":0.20054098829076192,"13":0.3973345374539642,"14":-0.014600881598669046,"15":-0.2231235340461934,"16":0.08630510339019908,"17":-0.2616765379658853,"18":-0.03125042377095156,"19":0.014994776194676974,"20":0.13855449701732403,"21":0.006792343039004119,"22":0.02990759482454925,"23":0.10951141777960019,"24":0.1228886771000454}},{"sx":5,"sy":5,"depth":1,"w":{"0":-0.20723020473050968,"1":-0.21605766198076448,"2":-0.27765111156404587,"3":-0.36275494207213727,"4":-0.007962066357101323,"5":-0.424044455525473,"6":0.16309208274917222,"7":-0.318703726524852,"8":-0.017553568117583594,"9":0.26087058989164524,"10":-0.24134467393041695,"11":-0.19539089049040903,"12":-0.482894244139082,"13":0.016280247235856943,"14":0.17795277382596655,"15":-0.0721901617492983,"16":-0.1984285069558048,"17":0.11600457711881428,"18":-0.22811627767845924,"19":0.48174533747997833,"20":-0.35791087834129437,"21":-0.31310973545060933,"22":-0.15721036277919526,"23":0.3458812901176436,"24":-0.056592119191109354}}],"biases":{"sx":1,"sy":1,"depth":8,"w":{"0":-0.05464765731569697,"1":0.07044486907097251,"2":0.03712814356885636,"3":-0.007598610392638285,"4":0.15141820077972593,"5":0.11424369968170611,"6":-0.023756966775003274,"7":0.20752396954016677}}},{"out_depth":8,"out_sx":24,"out_sy":24,"layer_type":"relu"},{"sx":2,"sy":2,"stride":2,"in_depth":8,"out_depth":8,"out_sx":12,"out_sy":12,"layer_type":"pool","pad":0},{"sx":5,"sy":5,"stride":1,"in_depth":8,"out_depth":16,"out_sx":12,"out_sy":12,"layer_type":"conv","l1_decay_mul":0,"l2_decay_mul":1,"pad":2,"filters":[{"sx":5,"sy":5,"depth":8,"w":{"0":-0.03236918661727112,"1":-0.05731071726262491,"2":-0.05869417523592753,"3":-0.11142058554898893,"4":-0.011089527039680051,"5":-0.10074249455574676,"6":-0.06747756226572732,"7":-0.07229562554333484,"8":-0.04898166298260174,"9":-0.01438948789459225,"10":-0.06685762390162056,"11":-0.08116000717255838,"12":0.016533245463883503,"13":-0.08081323909047874,"14":-0.12121981148421279,"15":-0.022193800089365008,"16":-0.02032267641347424,"17":-0.039034778965343124,"18":-0.002101416090480292,"19":-0.05226088743714421,"20":-0.05519260010844256,"21":-0.02660663069240791,"22":-0.07454663330733342,"23":-0.06541854969945894,"24":0.04616160371361756,"25":-0.019626093837725532,"26":-0.013439607775831294,"27":0.008498591237524614,"28":-0.012415414154928542,"29":-0.08377503360691678,"30":-0.04658324179286278,"31":0.0005774062021843952,"32":-0.153436939026237,"33":0.02946953313694275,"34":-0.08838095010772812,"35":-0.06427651108563597,"36":-0.057915001454202315,"37":-0.16325640099959526,"38":0.05645279783679079,"39":0.028866764539620112,"40":0.1691607282705872,"41":-0.0451640027557828,"42":-0.09027751805105844,"43":-0.023583754207388806,"44":-0.0073654144869024826,"45":0.03650496621064328,"46":-0.113202043954934,"47":-0.03462070658858441,"48":0.16620470069601714,"49":0.10309991032952666,"50":0.018004798160827038,"51":0.01611879552926834,"52":0.056198838659155564,"53":0.01320217744963592,"54":0.03586655012486038,"55":-0.037647575502526245,"56":0.15172201511677735,"57":0.0788551749235032,"58":0.09272374988499675,"59":0.02891559139289489,"60":-0.10067319363540024,"61":-0.05030265008055682,"62":0.01777088697011034,"63":0.00771550483840988,"64":0.058900840104447794,"65":-0.11041603205497068,"66":0.06411613691768507,"67":-0.03356316658407129,"68":0.032571386233754905,"69":-0.013892691385546439,"70":0.0530513074637631,"71":-0.014479533540501825,"72":-0.029886648833726916,"73":0.08521596962741845,"74":0.059905168606784194,"75":0.04228136483830436,"76":-0.056076396672280884,"77":-0.05187856429664152,"78":-0.005825840349655967,"79":-0.08455272477031267,"80":0.08444090697210511,"81":0.10457703048305679,"82":0.13690648650942325,"83":0.15792635060429905,"84":0.022606219767232934,"85":-0.104388165883603,"86":0.011037984174598458,"87":-0.030799881853085354,"88":0.12558842228808362,"89":0.09936457665457295,"90":0.008684762236299319,"91":0.0028671874867341038,"92":-0.05921354378646703,"93":0.0613899911893059,"94":-0.012384381871921812,"95":0.05452216409029038,"96":-0.11362625533670044,"97":0.15126283393317294,"98":-0.17121073678355864,"99":0.019984301705435654,"100":-0.030364956821853334,"101":0.04061564621591823,"102":0.036190001120192994,"103":-0.04188601670854129,"104":-0.11779633291859072,"105":-0.015118336964332221,"106":0.042340903301876155,"107":-0.08790102801637084,"108":-0.09953949051309907,"109":-0.08503676225225128,"110":-0.11310225820810489,"111":-0.0034168722492226595,"112":0.0018489575817026282,"113":-0.06415198415663964,"114":-0.0943955715795755,"115":-0.1705691104974992,"116":-0.10449864357642262,"117":-0.0021829187743669944,"118":-0.029722196249873118,"119":-0.010833691409202543,"120":-0.07732606366415153,"121":-0.06969634669267036,"122":-0.11451619111084187,"123":0.024343557428235022,"124":0.053091871831196014,"125":0.1066766466043478,"126":-0.04609039366133924,"127":-0.019477287810300715,"128":-0.048743843281204194,"129":-0.08727462223117992,"130":-0.08642139385502288,"131":-0.016025190331817315,"132":-0.08883130124490371,"133":-0.10586177842070084,"134":0.03343081989147079,"135":-0.004874751250977372,"136":-0.03293827486067603,"137":-0.01660564823227818,"138":-0.04548239480164374,"139":-0.05230843777167331,"140":-0.00971308071426525,"141":0.062345969370500215,"142":-0.15232971366343018,"143":0.02021140896564997,"144":-0.07771924447898775,"145":-0.09607726043676353,"146":-0.02352127396431351,"147":-0.05786742612590083,"148":-0.1322003027577649,"149":0.09631671106337937,"150":-0.06112840384992067,"151":0.12026307079623892,"152":-0.18767118747185008,"153":-0.0010519930816155377,"154":0.16176432607337318,"155":-0.09284072917970743,"156":0.01055956981192342,"157":-0.06348333766308746,"158":-0.010107429073499557,"159":-0.032492771730730195,"160":-0.06393589020723763,"161":-0.0236861811504149,"162":-0.08123539605906477,"163":0.045851371641714794,"164":-0.007509106904995151,"165":-0.049827395258593164,"166":-0.015806309549053193,"167":0.019359081649443482,"168":-0.04276768748163603,"169":-0.024258059174395837,"170":-0.0341979790928772,"171":-0.12195672128262325,"172":-0.11240410096835587,"173":0.02178729843346714,"174":-0.06905854820483684,"175":0.09210678043458498,"176":-0.05869493561212424,"177":-0.04105718296523769,"178":-0.07445139782089898,"179":-0.07806595050007718,"180":-0.026379063690807832,"181":0.056557472459824336,"182":-0.0950284626522826,"183":-0.17697688902661324,"184":-0.1279043183348591,"185":0.06402878460785606,"186":0.007963441172410844,"187":-0.046777897718358934,"188":-0.022190842518296686,"189":-0.08658985196638382,"190":-0.0855549055009106,"191":-0.06220461105380519,"192":0.021229289652292805,"193":-0.10261969771556494,"194":-0.009796026422286415,"195":0.025274376397122895,"196":0.01895599286299924,"197":0.09751394303808218,"198":-0.209939906430007,"199":-0.028810761630892728}},{"sx":5,"sy":5,"depth":8,"w":{"0":0.11894754880491569,"1":-0.059756601789696995,"2":0.017690186039209965,"3":0.08377466342917975,"4":-0.09384473021783737,"5":0.05746337346475334,"6":0.12500664452543747,"7":-0.15383402536317245,"8":0.1364075911053459,"9":-0.1126920243292364,"10":0.021707061607791383,"11":0.0349091450684873,"12":-0.22201403270421696,"13":-0.02084740536982196,"14":-0.1014178417505492,"15":-0.15756570705449663,"16":0.07365028351983459,"17":0.08866157055428141,"18":-0.04312651853559109,"19":-0.15017592999285234,"20":-0.06341255769726839,"21":0.05687506087400252,"22":0.04096631945756717,"23":0.03814769992285993,"24":0.006943527944852585,"25":-0.0395614707673331,"26":-0.03750615884598933,"27":0.08329026518037357,"28":-0.057063430776100744,"29":0.00011149007586136201,"30":0.10543072306942652,"31":-0.070665276413609,"32":0.047472120582738024,"33":-0.030930097563908195,"34":-0.23054310949269455,"35":0.016056290378224237,"36":0.19739513917401957,"37":-0.008141714885871716,"38":-0.06479062538935718,"39":-0.07001353665012082,"40":0.0568307158373596,"41":0.04908817794801325,"42":-0.0912723534439684,"43":0.05474899795021085,"44":-0.11762190383556909,"45":-0.15743271236935885,"46":0.11939156159723174,"47":0.05169183772311041,"48":-0.0147796519626829,"49":0.015406562750683726,"50":-0.0268012097084296,"51":-0.015472945601797107,"52":0.09107155335474994,"53":0.10177344796121918,"54":0.029226145516466875,"55":-0.13589041497329485,"56":-0.0035446302573739407,"57":0.061351717416510805,"58":0.028790154082252342,"59":0.05799799605627143,"60":0.07572147634367878,"61":0.024758381968075935,"62":0.05744119177748113,"63":-0.00483065258955729,"64":-0.009904346543239026,"65":0.00908802906602713,"66":-0.12257857180388701,"67":-0.01355928124125926,"68":-0.11351957065810657,"69":-0.0355490755053945,"70":-0.13306718313229562,"71":0.03434080365297978,"72":-0.12909911524786397,"73":-0.07511432006847983,"74":0.06748571420217978,"75":0.006843931429780575,"76":-0.020564532744832133,"77":-0.05062493746430225,"78":-0.013680285530413672,"79":-0.06798283285265276,"80":-0.03819026732608767,"81":-0.005044048566457629,"82":-0.14213406374654244,"83":0.12381032197266527,"84":-0.07939220795240792,"85":-0.02382333886422493,"86":-0.014698916721517224,"87":-0.03118586014465029,"88":0.017913622429169992,"89":-0.02810218447610161,"90":0.0270629685895685,"91":-0.014561730922669405,"92":-0.11858931110263206,"93":-0.04755046445844929,"94":0.021354807334309188,"95":-0.16475791512309107,"96":-0.031492880178909326,"97":0.15622460092417784,"98":-0.018850539689403135,"99":0.022291195210467536,"100":0.036607239867941045,"101":0.09239006155429294,"102":0.00529832307092956,"103":-0.16949762339008848,"104":-0.13252155228217707,"105":0.03341214206225999,"106":0.0062272042618799345,"107":-0.039987947235038346,"108":-0.10463121305943768,"109":-0.08454849083223137,"110":0.07006472016354232,"111":0.05876193078860981,"112":-0.017877598635168176,"113":0.14932109609551586,"114":0.007067068970039784,"115":-0.05292759516911809,"116":-0.08487610923184445,"117":0.03681630658067904,"118":0.023760873809885532,"119":-0.008981981734450663,"120":0.17688448885970812,"121":0.05779014618082997,"122":-0.1050492980362616,"123":0.0014586068254506524,"124":0.04496819975447562,"125":-0.13877493906314628,"126":-0.05680297224736398,"127":-0.10096751253245588,"128":0.08548890832918542,"129":0.012534865190238328,"130":0.07117546031367768,"131":0.08778263154463667,"132":0.14576060859502263,"133":0.05629888286710238,"134":-0.03763350511518007,"135":-0.143875386843944,"136":-0.0751721627526257,"137":0.014776032247073937,"138":-0.060675623169189036,"139":0.12493961162158973,"140":0.06738755679573384,"141":-0.007429265445017737,"142":0.17633818169943555,"143":-0.12435716221224898,"144":-0.04052417497790826,"145":-0.1926883639284828,"146":0.026537005064482037,"147":0.0694110080346985,"148":-0.041730461922041266,"149":-0.1225650929363806,"150":-0.04962354583426016,"151":0.11062547200676287,"152":0.08277139124247687,"153":-0.08945855123543478,"154":-0.052989696460020906,"155":-0.011014397015892258,"156":-0.05071502346541752,"157":-0.09239261601636879,"158":-0.004957181877505059,"159":-0.09778413670633838,"160":-0.11063352099212508,"161":-0.07772489721449795,"162":-0.060854285095577956,"163":0.050711963815481514,"164":-0.024389855075914516,"165":-0.024605101768288454,"166":0.07722488486358106,"167":0.0029260771229797167,"168":0.01004457858306234,"169":0.06314769843357869,"170":-0.058308894721054286,"171":-0.11913021607404418,"172":0.0458824038201451,"173":-0.025188562288722304,"174":0.02099427582084756,"175":-0.08284553295857068,"176":-0.11383491097328403,"177":-0.027077163308680496,"178":0.17678879400317574,"179":-0.047468546855241815,"180":-0.05471288938082727,"181":-0.0033673276962331933,"182":-0.054082432606032904,"183":-0.018091347290484835,"184":-0.0013593252353286678,"185":-0.061167909964437474,"186":0.040303693420398135,"187":0.0006755526337753324,"188":-0.04089852233676934,"189":0.04919805977000249,"190":0.001998791065265056,"191":0.10972516554795153,"192":-0.026592749852974377,"193":-0.10801991208479907,"194":-0.12420040044890814,"195":0.004299922073985627,"196":0.03141816858235417,"197":-0.022271289352047276,"198":-0.24960456975677955,"199":0.0771050969018002}},{"sx":5,"sy":5,"depth":8,"w":{"0":0.024901508575649833,"1":0.024398668802726398,"2":-0.020949054245568283,"3":-0.059986321679866755,"4":0.0783686728692068,"5":-0.002931559354241855,"6":0.022972126124890028,"7":0.065584376201988,"8":-0.1476347674788666,"9":-0.11823993913354704,"10":-0.04192028523531237,"11":-0.11227555957973111,"12":-0.08485318447169805,"13":-0.15517745332852326,"14":-0.0328432473313381,"15":0.19107991320736317,"16":0.029797399379259095,"17":-0.02005988150740174,"18":-0.06726392603492548,"19":-0.11504162928938225,"20":-0.030060889575596574,"21":-0.14654451871295956,"22":0.0764300010691575,"23":-0.014923503333926785,"24":-0.02934712676343106,"25":-0.12292063261799843,"26":-0.027855024643086344,"27":0.0449181847133327,"28":-0.10124832773173337,"29":-0.07362078110126713,"30":-0.04259776760495927,"31":-0.05386157927376714,"32":0.024697852537962396,"33":-0.09062826524567315,"34":0.005476582984187568,"35":0.07038454520942392,"36":-0.15784802748954524,"37":0.03748313067834373,"38":-0.03883847400363406,"39":-0.09413400000222905,"40":-0.02524361529373153,"41":-0.08888041177787001,"42":-0.10693534806414576,"43":-0.09768400234681524,"44":-0.11475412579579236,"45":0.13595226095965024,"46":0.05092810493012368,"47":-0.10454257462480128,"48":-0.010877123766577741,"49":-0.032628137857645415,"50":-0.006334148202560499,"51":-0.024828186741850007,"52":-0.10049771901800321,"53":0.06272132034960311,"54":-0.0457579509267839,"55":0.1398066003686342,"56":0.006733574881866245,"57":-0.026260248950666008,"58":-0.03951894745231673,"59":-0.015413642510969765,"60":0.009125751369975982,"61":-0.044504523465266406,"62":-0.11134608051145489,"63":-0.15203824222935172,"64":-0.051689041933749895,"65":-0.042831374653909154,"66":0.057217992482808455,"67":0.13274953048283245,"68":0.09896875440712798,"69":-0.12407733181567215,"70":0.05972677542239785,"71":-0.10416361467434099,"72":0.027620205102176915,"73":0.07116550741428432,"74":0.049970219341265,"75":-0.04115088457767858,"76":0.09543198462213766,"77":-0.02025840718009165,"78":0.03296637785849217,"79":0.034554557738117817,"80":-0.0688867973993472,"81":0.0005640349149618014,"82":0.03335430164452554,"83":0.004539375375715862,"84":-0.08327575179023194,"85":0.02481265559568512,"86":-0.07409774555741466,"87":-0.07006625951574608,"88":0.0949165097783176,"89":-0.0638539398607738,"90":-0.1171321240133327,"91":0.08502942494019368,"92":-0.002877611252790873,"93":0.029761409717535978,"94":-0.04446872966192067,"95":-0.026386312796905585,"96":0.10100301777153257,"97":0.030605129761168314,"98":0.02978019002876888,"99":0.10041781748767742,"100":0.03364506338914772,"101":-0.03821764171377502,"102":0.06471352757267526,"103":-0.1093146358130094,"104":-0.042206144142971164,"105":0.12287727178389406,"106":-0.02789741122627865,"107":0.12413390386683992,"108":0.06720222170348603,"109":-0.05901186991579263,"110":0.08986201836763512,"111":-0.015586063723552602,"112":-0.056624136502362664,"113":0.023569223722219066,"114":0.07182248907800629,"115":0.055526755127104206,"116":0.013960446181551534,"117":0.0030994496046243703,"118":0.17125277896057653,"119":-0.023375947515395356,"120":-0.017184735433315397,"121":0.05530375048276973,"122":0.014405178661821408,"123":0.0427121637056491,"124":0.016109685931841942,"125":0.017275874808848724,"126":0.09816103732621174,"127":0.010915658566858543,"128":0.057161524157133166,"129":0.07583938194485383,"130":0.09495224224584096,"131":-0.012011214998473246,"132":0.013302940190573724,"133":0.04326114456609756,"134":-0.07579543007495536,"135":0.035038243939216306,"136":-0.015768352224671368,"137":0.13646403489174888,"138":0.046378761406063854,"139":0.10856287576632569,"140":0.03675930033331929,"141":0.04343045881041513,"142":0.08283403822154341,"143":-0.04725161341023213,"144":-0.13366675904819422,"145":0.0661267660918884,"146":0.016388606224335637,"147":0.08305513840345075,"148":0.08924594270006152,"149":-0.005016051865372819,"150":0.005799289841934939,"151":-0.08153831170706023,"152":-0.0959028154406101,"153":0.009545873621845303,"154":-0.08341331829474596,"155":-0.1995237019240432,"156":-0.0451139934316593,"157":0.08049573400665566,"158":-0.02180237228103906,"159":-0.173550652827144,"160":-0.06984738167446027,"161":-0.019940155038479904,"162":-0.057903752527999904,"163":-0.06300424224961182,"164":0.07434373718355784,"165":-0.02441203721631865,"166":0.02178451294418329,"167":-0.04100235489047852,"168":-0.12364517076568018,"169":-0.1430655552449025,"170":-0.0009318620997534927,"171":-0.08288701867004504,"172":0.08597272491406073,"173":0.021559543132875662,"174":0.04991456229679546,"175":-0.027340541348667036,"176":-0.030922808072388744,"177":0.005807977943181653,"178":-0.20589727109016875,"179":-0.0490834581554178,"180":-0.04110035784252422,"181":0.009764772547352696,"182":0.015524128886695817,"183":-0.16899406951392248,"184":-0.0564998579431964,"185":-0.02180367235875903,"186":0.00501468140537478,"187":-0.13025512932679756,"188":-0.004058258305478844,"189":-0.0010331187932724694,"190":-0.09174198896541501,"191":0.06892863480313757,"192":-0.23094180012265814,"193":0.03666031334802735,"194":-0.07388635455637112,"195":-0.12659978561797972,"196":0.023398619764585012,"197":0.0563492114653245,"198":-0.08892180050433904,"199":0.0637725267457184}},{"sx":5,"sy":5,"depth":8,"w":{"0":0.02030315152232758,"1":0.040644233840725394,"2":-0.04894767785943102,"3":0.18573171382823772,"4":0.01773939501705288,"5":-0.055762676994576627,"6":0.10826881798662316,"7":0.00720940540752698,"8":-0.0027416328238092603,"9":0.16957810684904934,"10":0.16330984042508037,"11":0.17442682599785428,"12":0.07229061857483447,"13":0.0067069571101465095,"14":-0.15375763366360554,"15":0.02731692927801361,"16":0.027670718034577917,"17":0.07477574289098843,"18":0.06357748223756914,"19":0.1498779865121432,"20":0.19720208999558958,"21":-0.057632112501633886,"22":0.08137899318058535,"23":0.009404331730552985,"24":0.020148311066499888,"25":0.05829108970471568,"26":0.037867670221964154,"27":0.04733296442616687,"28":0.07054321492418054,"29":-0.06268164582583736,"30":0.05722141261274704,"31":-0.004467422854089698,"32":-0.08117884388606869,"33":0.19896178686307542,"34":-0.05799385117337598,"35":0.03790088156900334,"36":0.015319878203366347,"37":0.04232234086605867,"38":0.020027799370939445,"39":0.02002611513750397,"40":0.04452677886549146,"41":0.03999220959357882,"42":-0.0036631037669770453,"43":-0.002845730628107925,"44":0.09105498975010246,"45":-0.09177700783927023,"46":0.056999364748090704,"47":-0.07852647337978398,"48":-0.09055194208441698,"49":0.12300233937267432,"50":-0.20949803869956807,"51":-0.13665812845274514,"52":-0.030652905772079426,"53":-0.16181527156133535,"54":0.07232028588012052,"55":0.04067515869193126,"56":-0.027103096638137952,"57":0.07646325547798301,"58":-0.04565177062328886,"59":-0.10255152535378413,"60":-0.08897491715174094,"61":-0.06543923982889935,"62":-0.07663673226931145,"63":-0.1783562630143687,"64":-0.006452896128899711,"65":0.0481965911767655,"66":-0.0398760721617536,"67":-0.07454988492718122,"68":0.03298196905514335,"69":0.011550914126522066,"70":-0.00995915437412147,"71":-0.07586936397677498,"72":0.11417161617152306,"73":0.08798293540597696,"74":-0.01611137121744521,"75":-0.17505443352504113,"76":0.1554884393227981,"77":-0.0716906732415598,"78":-0.06267785416057048,"79":-0.03672067138120608,"80":-0.02072090804585946,"81":-0.06699102723697702,"82":-0.005494556589410998,"83":-0.040460970668734525,"84":-0.08246088436076915,"85":-0.06046392792373271,"86":-0.006721495455630425,"87":-0.06459296806399083,"88":-0.05610392444156585,"89":-0.11333936657656969,"90":0.044991822678673056,"91":-0.17840106665747738,"92":-0.00915265547026545,"93":-0.043818005794868935,"94":-0.12120543453250185,"95":-0.042788058948851446,"96":-0.11030791398709641,"97":-0.1343961093340753,"98":-0.0190121780635488,"99":-0.056776339924514696,"100":-0.0861880404139015,"101":-0.05838195092573992,"102":-0.045818300819663274,"103":-0.08839690827147244,"104":0.06958536264473486,"105":-0.135421144526623,"106":-0.09012144916356334,"107":-0.09795991227837467,"108":-0.0023588348413218644,"109":0.009181629504031922,"110":-0.036453195350652015,"111":-0.058938416765575534,"112":-0.04864344595751103,"113":-0.08488903144337202,"114":-0.036896795210866626,"115":-0.14096062374830096,"116":-0.11936898563236013,"117":0.09482419490920281,"118":-0.05515845668015923,"119":-0.011124805326986195,"120":-0.02481024922192332,"121":-0.05817872771742786,"122":-0.01736584304154319,"123":0.11452079465154273,"124":0.014585933403293581,"125":-0.07054608627881583,"126":-0.08492040882340117,"127":0.009421346208904741,"128":0.0986609173192501,"129":-0.13521365883239733,"130":-0.06562961987573158,"131":0.05825996275857267,"132":0.006594992864501931,"133":-0.022235346994798257,"134":0.05132033022363406,"135":-0.010775632257371317,"136":-0.11518488870632852,"137":-0.028484738969540596,"138":-0.05124321673361305,"139":-0.06208394775071281,"140":0.008348415062623508,"141":0.0483692585534413,"142":0.0008190291614810555,"143":0.11510057532024776,"144":-0.018914639466891012,"145":-0.015138628037293277,"146":0.10730348087781633,"147":0.039805085205593484,"148":-0.0741026429392328,"149":-0.0033894292365735665,"150":-0.08844308886229779,"151":0.0422117730437313,"152":-0.032817163703898915,"153":-0.06302299597978733,"154":-0.11857431693428881,"155":-0.016357677494838598,"156":-0.06125192303340652,"157":-0.083037792512564,"158":0.01750591517211004,"159":0.13711634123761432,"160":0.018159122498795793,"161":-0.034827085153850995,"162":0.01648563696289744,"163":0.035890664424929566,"164":-0.05286377374487638,"165":-0.031553756395776886,"166":-0.016853508495051434,"167":-0.038638546567397646,"168":0.022886734780485227,"169":0.02020215297636982,"170":-0.07898971484513571,"171":-0.03373043800758324,"172":0.05676138042812232,"173":0.044529342310037474,"174":0.05021294537992102,"175":0.013109000416583156,"176":-0.056264671896897885,"177":-0.15059860182529175,"178":0.0842584064357723,"179":0.008954644654429767,"180":0.11560672447429736,"181":-0.0425677085626846,"182":-0.05888025866830925,"183":-0.09048779781081723,"184":0.10997064718017496,"185":-0.011638103581367208,"186":-0.031201081161227582,"187":0.027790936186803995,"188":-0.07595004331207798,"189":-0.008049297821363991,"190":0.007028077049828359,"191":0.004517844594026028,"192":0.11582652977317243,"193":0.16040989330772026,"194":-0.0908259658513833,"195":0.16459433133788703,"196":0.16344905417989683,"197":0.060752392366683915,"198":0.09123830031926579,"199":0.05951438144480596}},{"sx":5,"sy":5,"depth":8,"w":{"0":0.0051212877573768465,"1":0.09324494140644243,"2":-0.013118099531469711,"3":0.00559748535878307,"4":0.10008390937968839,"5":0.044272899897027006,"6":0.13321157320740828,"7":-0.13762753995657037,"8":-0.12124622289592923,"9":-0.009229957829727048,"10":-0.09735424567290873,"11":0.002077003198047313,"12":-0.03425245745418717,"13":-0.0984402490990479,"14":-0.011236859697035504,"15":0.043093390190089384,"16":-0.23487985310043305,"17":-0.06990121334910938,"18":-0.04904713861477355,"19":-0.12836756257191956,"20":-0.09799805782161344,"21":-0.07303229926159203,"22":0.0421199784156212,"23":0.03470947918783344,"24":-0.03937279399975505,"25":-0.044435287697204645,"26":-0.08502342175243915,"27":0.22602529975760247,"28":-0.19161757252447933,"29":-0.06437555563689895,"30":0.018644059080652864,"31":0.2190472896890521,"32":0.3955034953678878,"33":-0.1902619471663157,"34":-0.03877777393627129,"35":0.05842249328462207,"36":0.01908170578014484,"37":-0.13812171414630017,"38":0.32882185336139164,"39":-0.0056638934937660035,"40":-0.14062848937896477,"41":0.10488429607826469,"42":-0.0617868370986818,"43":-0.012467094864309431,"44":0.0031645849551227363,"45":0.052635017424553954,"46":-0.04678388455221288,"47":0.054657537597433865,"48":-0.03427414583735393,"49":-0.13187925744285214,"50":0.06545278531942698,"51":-0.21694441589892027,"52":-0.2237139834072054,"53":-0.09075531476283955,"54":-0.16434158758337125,"55":0.17326023024098963,"56":-0.4083594673483422,"57":-0.12854157016532408,"58":-0.14873659344641016,"59":-0.26531839774768573,"60":-0.2670412995921991,"61":-0.06566624701663541,"62":-0.0963507939646072,"63":0.1238235247670784,"64":0.13819840892298713,"65":-0.11759941963207614,"66":0.09008516435612655,"67":0.12954133812493604,"68":-0.336617511707981,"69":-0.01552284639265053,"70":-0.06149574425800866,"71":0.3739549210387527,"72":0.2326155423224676,"73":-0.1867551556080019,"74":0.19991441262333048,"75":0.13976587667919257,"76":0.1096429319140025,"77":-0.05631154865379437,"78":0.1404530055817492,"79":-0.08144421127805904,"80":-0.03058961947442869,"81":-0.0352072699477692,"82":-0.06350974367940747,"83":-0.08184559589604894,"84":-0.08756617074873652,"85":-0.1378317605093027,"86":-0.03748671349638888,"87":0.0495465706264197,"88":-0.19120455959635668,"89":-0.037512449664477754,"90":-0.023671094301805234,"91":-0.1614651421906946,"92":-0.04146490714494269,"93":-0.1683327748035418,"94":-0.15999046379040432,"95":0.017428719653110044,"96":-0.16085303185548655,"97":-0.2069728006567667,"98":-0.18163170281470398,"99":-0.055349696501246465,"100":-0.29279106319763526,"101":-0.05132453852159015,"102":-0.2689719603355064,"103":0.04901124408947208,"104":0.0709048166520334,"105":-0.0487404907712482,"106":-0.12634215892911055,"107":0.05133686670805897,"108":-0.02367805514947404,"109":-0.2538566502694981,"110":0.002492209700557582,"111":-0.014445349389442705,"112":0.11084370644058754,"113":-0.053391115346877877,"114":0.18505056062020947,"115":-0.0395843286701395,"116":-0.007124669575001437,"117":0.1194014296441847,"118":0.1918783098732084,"119":-0.07911268710149238,"120":-0.05716447954060576,"121":-0.06283582535161253,"122":0.13428680788670172,"123":0.017173473167333572,"124":0.11554307791557908,"125":0.0987573889433487,"126":0.02493462865887859,"127":-0.04071964960158631,"128":-0.20858638238664018,"129":-0.07940410384790896,"130":-0.01755384078496951,"131":-0.13623801207631586,"132":0.17293575866541852,"133":0.13115086401631776,"134":-0.12386588091017948,"135":0.06991161161152132,"136":0.02485513897382682,"137":-0.1592970755536393,"138":-0.1743180068225013,"139":0.02907273162451592,"140":-0.15099429573103512,"141":0.008032293210934124,"142":-0.07608932457446675,"143":0.11101333062810416,"144":0.26191314137054694,"145":-0.022492005022620623,"146":0.0017953293833167512,"147":0.046915308165457324,"148":-0.018019942593438015,"149":-0.10397019665640235,"150":-0.05019358886409201,"151":-0.04939770187532233,"152":0.11372031646181632,"153":0.036928487269083723,"154":0.2838251233033145,"155":-0.05141379952944798,"156":-0.0018708741588433855,"157":0.0721766003023473,"158":0.15274032110412505,"159":-0.0030118720082701416,"160":0.14772291217610015,"161":-0.14105425224639664,"162":0.12359910426293177,"163":0.1618318613940375,"164":-0.05565449233468504,"165":0.11546159131106651,"166":0.11954829052856508,"167":-0.10474759945066664,"168":0.0641053600712247,"169":-0.1932707599364858,"170":-0.0240984225610611,"171":0.017702479235270456,"172":-0.03363520863689622,"173":0.14411965910497868,"174":-0.051130356632540466,"175":-0.06295180407159841,"176":0.1760532480359872,"177":-0.21630964261186525,"178":-0.08218052948000076,"179":-0.01904465523252749,"180":-0.07390397145166197,"181":0.0012762585049278757,"182":-0.09525368469610868,"183":-0.009833443651133972,"184":0.0662276886945168,"185":-0.10915708081168704,"186":0.024945024309927677,"187":-0.08559499355521889,"188":0.13894645001177966,"189":-0.07298294833890276,"190":0.06083428272649517,"191":0.04033469265731682,"192":-0.13175053504938547,"193":-0.03466052115812482,"194":0.05258911550822484,"195":-0.259512707062849,"196":0.10989945519739738,"197":0.0327375001394088,"198":-0.064166492045982,"199":-0.24900659338442213}},{"sx":5,"sy":5,"depth":8,"w":{"0":0.03382766416515039,"1":0.016713112648034458,"2":0.10262481911635271,"3":-0.0012975120194394394,"4":0.03412961725040753,"5":-0.00815326595649315,"6":0.04653451984953811,"7":-0.06928432752040128,"8":-0.012104708857041681,"9":0.0886029267208061,"10":0.0732081456156578,"11":0.18398730484337,"12":-0.05002294186059369,"13":0.0755915810938702,"14":-0.011845126707078116,"15":0.1381570697601983,"16":-0.12183687303957684,"17":-0.046735397214384806,"18":0.13556249386259817,"19":-0.018772516463318317,"20":-0.10399621119956969,"21":0.058983543018582704,"22":-0.15091741779707277,"23":-0.035506700766467565,"24":0.0064694725625212834,"25":-0.10689771743097351,"26":0.0021536916557056236,"27":-0.07036779825285286,"28":-0.20239291471555904,"29":0.025914649210379902,"30":0.07546802922181305,"31":-0.14708221457313525,"32":-0.0592549413768589,"33":-0.2319471410006032,"34":0.0015185252081568752,"35":-0.039207348367812256,"36":-0.12373332527881686,"37":-0.08762211334073368,"38":-0.08248815774714624,"39":0.022149386015869143,"40":0.06844200572938085,"41":-0.04411080088593486,"42":0.0034824100624662145,"43":0.0004351887750314,"44":-0.044390616290669,"45":-0.009508292737272666,"46":-0.0186081806743264,"47":-0.0753829144704315,"48":-0.021435265870882646,"49":0.06720736903060286,"50":-0.042449866895928355,"51":0.1351463035252439,"52":0.09480988096391867,"53":-0.15458283413756554,"54":0.030687268981302283,"55":0.016489577414214984,"56":-0.045250954903823117,"57":0.058622405906355195,"58":-0.074021668192809,"59":0.05587915143108625,"60":0.02483711183782269,"61":0.059848804590213925,"62":-0.03914950401685216,"63":-0.12661462041283464,"64":0.10409382799874987,"65":0.036284822937356104,"66":0.007476174267882841,"67":-0.03971525525930156,"68":0.1927839938334009,"69":0.002147721435815964,"70":0.012323005200638773,"71":-0.010603735558601566,"72":0.11287203654914812,"73":0.009470637244924723,"74":0.012039698146264368,"75":0.0764586988247117,"76":-0.07460139541559808,"77":-0.0754291232660295,"78":0.009201502715338471,"79":-0.06804229802781814,"80":0.041877930298817576,"81":0.05942484797990121,"82":-0.13667178711624606,"83":-0.006845055049363561,"84":-0.027167958695187757,"85":-0.08442259905324147,"86":-0.06802601896873323,"87":0.05521586912705276,"88":-0.07899366376780519,"89":-0.05974165999463746,"90":-0.22053926602277113,"91":-0.13342120833750953,"92":0.0956708472563174,"93":-0.08134997882004032,"94":-0.06045978959162771,"95":0.03248993364388888,"96":-0.08876032516115853,"97":0.01860676313807221,"98":-0.11781108145938025,"99":-0.020589225347458506,"100":0.11517918368155282,"101":0.040646360039047175,"102":0.03923768921767466,"103":-0.021997825356634818,"104":0.008429828294705512,"105":0.001459074793833186,"106":-0.09313618923023151,"107":0.02711309743681005,"108":-0.020835179557765614,"109":0.04264538738789734,"110":0.19928159406565382,"111":-0.06735365919038092,"112":-0.05204107937417663,"113":0.08457661035033716,"114":-0.03030773155473429,"115":0.0850618536472486,"116":-0.00385856708901676,"117":-0.05263206979003997,"118":-0.05139063851607653,"119":-0.16766464639672748,"120":-0.07742330585788389,"121":-0.028186783211281513,"122":-0.026636997486968666,"123":-0.046354631187646524,"124":-0.09115082325049391,"125":-0.0019994434583283584,"126":-0.034121626337898024,"127":-0.03040870223045662,"128":-0.07377125937063958,"129":-0.024849489229010733,"130":-0.06563624127699053,"131":-0.06589910699368062,"132":0.09490461185860635,"133":-0.03125048935384637,"134":-0.03547963188754896,"135":0.05048393586633261,"136":0.13767483749204024,"137":-0.11020489850003803,"138":0.04214736994130418,"139":-0.046874812082081566,"140":0.0211489133473693,"141":-0.02830823372834004,"142":0.030632651365814,"143":0.04272738528453496,"144":0.018710831062361197,"145":-0.017653841180206305,"146":-0.09456494314090728,"147":-0.058032658151243276,"148":-0.07151122692343857,"149":-0.10752469930667743,"150":0.013609804816361029,"151":-0.01732843943151821,"152":0.025765201091396777,"153":0.050387577056988875,"154":0.018957307047195126,"155":-0.0760995029715547,"156":-0.020554961584243293,"157":-0.039760024544923514,"158":-0.07606916227938541,"159":-0.07433604669579064,"160":0.09275471795643814,"161":0.017690606234645866,"162":0.09340991166248222,"163":-0.1184718005741907,"164":0.07436200269977807,"165":-0.09855488274727979,"166":-0.028594663055020154,"167":-0.13670122375851995,"168":-0.062377182188628436,"169":-0.054897776842294264,"170":-0.16428775320819966,"171":-0.051619380509220825,"172":-0.014530802838314883,"173":-0.10121681359929682,"174":0.04829200017714446,"175":0.06167933993393048,"176":-0.13492678499215263,"177":-0.05783490338218191,"178":-0.059343256825406664,"179":0.023839828718605408,"180":-0.09018716136353506,"181":0.03019784300048911,"182":0.004145771963042686,"183":0.027294983671852686,"184":0.09247564823685016,"185":-0.047962511227164224,"186":-0.07280241879950797,"187":0.008832536395245002,"188":0.0792148045264044,"189":0.08978132723453146,"190":-0.04587776810986357,"191":-0.04394693129249323,"192":-0.10609222586300499,"193":0.0446029581994897,"194":-0.013557645472212249,"195":0.09343301018340135,"196":0.011538552788384279,"197":-0.05008599835075457,"198":0.1449519482547953,"199":0.00150997409527584}},{"sx":5,"sy":5,"depth":8,"w":{"0":0.051091476293791474,"1":0.07447840132891986,"2":0.016985599459415468,"3":0.08909443289372436,"4":-0.16962512239050515,"5":-0.05569421152708161,"6":0.024550499651041717,"7":-0.12155924958528534,"8":0.017508316888922664,"9":0.00597331961278876,"10":0.07939848504999507,"11":0.060835143530985535,"12":0.0024533061351555176,"13":-0.014514812124154314,"14":0.02621018435305743,"15":-0.0977949547353696,"16":0.1300549470605359,"17":-0.048560687892790944,"18":0.009107152582914852,"19":0.038125508031418676,"20":-0.12752125190268546,"21":-0.08927430120942365,"22":0.08818701576845418,"23":0.037495547250741716,"24":-0.10104903530645075,"25":-0.027790313903826667,"26":0.093867429858116,"27":-0.01833159994690141,"28":-0.005096707621780933,"29":-0.010820714885895833,"30":0.04427820095565292,"31":-0.06866572415441605,"32":-0.019669545257507866,"33":-0.03687873322840431,"34":-0.09274646190697615,"35":0.01870013919468446,"36":-0.13909010758588958,"37":0.012124040880080168,"38":-0.07563917281309095,"39":-0.02502861709533147,"40":0.0002512103917130421,"41":-0.13812544143888733,"42":-0.13847472418759013,"43":-0.05209397219635986,"44":0.019214370183091602,"45":0.012070882626811962,"46":0.1173461338350933,"47":-0.09728520480739045,"48":-0.04628230603241104,"49":-0.09615389491117288,"50":-0.04226217073747907,"51":-0.05572108346226139,"52":-0.11395457419187165,"53":-0.08409997486148893,"54":0.023096016284167492,"55":0.007243025152457174,"56":-0.04350429005060933,"57":-0.09121048376487596,"58":-0.011628712744970286,"59":0.09749762425312876,"60":0.051272794385896436,"61":-0.16576203723866936,"62":0.029245138458364617,"63":-0.09503982366083584,"64":-0.019319749808305416,"65":-0.016300506723845858,"66":0.023499192942887465,"67":-0.02773028136317544,"68":0.07400900417828264,"69":0.06247898596456623,"70":0.07126291245610306,"71":0.0895831967529772,"72":0.0739259153712178,"73":-0.07018760033052447,"74":0.041923598520775915,"75":0.0914202381034601,"76":0.03876836195067044,"77":-0.09297085207711653,"78":0.030874353347932777,"79":0.03472981475556178,"80":-0.08573038380949541,"81":-0.11829352215575208,"82":-0.03980345683159934,"83":0.0262801892317742,"84":0.041091028421905464,"85":-0.002373095367661589,"86":-0.13875341249300796,"87":0.011194095906974965,"88":0.10606854003241185,"89":-0.09098855972046377,"90":0.006106963971800684,"91":-0.07863906447764633,"92":-0.048217464245300365,"93":-0.04598477823904858,"94":-0.038129556265736525,"95":0.04118487314965381,"96":0.09843726795177661,"97":0.08465211038642265,"98":-0.010847662877528442,"99":-0.030058626528130777,"100":-0.06174534947152185,"101":0.028569453025245498,"102":0.08120938679196563,"103":-0.06666405815085305,"104":-0.21298324586290499,"105":-0.07234745886381774,"106":0.03750093182517227,"107":0.041709314669168995,"108":-0.09365584642286715,"109":0.07292660096908679,"110":-0.05020316432655085,"111":-0.09606306950982338,"112":0.062064966369252794,"113":-0.04640886819437693,"114":-0.03226057417433078,"115":0.09913057906115058,"116":-0.1507355738135139,"117":-0.03243263790398913,"118":-0.07604757042834874,"119":-0.10292207040277145,"120":0.019047621073422144,"121":-0.0524993995101734,"122":0.056236235959814085,"123":-0.06614992066881538,"124":-0.1779451088833938,"125":-0.013364151234144146,"126":-0.14955207319816927,"127":0.02189068706126163,"128":0.014589018175936035,"129":0.20791012236893427,"130":0.028108975769925652,"131":0.14192272884059864,"132":-0.1835090375028157,"133":-0.007360046942831961,"134":-0.07851919367908969,"135":0.04508185519174345,"136":-0.020036552951677226,"137":0.025266257811367442,"138":0.13577750444082579,"139":0.11830666514524772,"140":0.13612828411647615,"141":-0.12544817411983997,"142":0.015963024564635338,"143":-0.06062926525160901,"144":-0.03705896968893889,"145":0.16131822105824456,"146":0.12278203410087565,"147":0.21308386181594133,"148":0.11437510113900322,"149":0.030116766228377733,"150":0.102681947733586,"151":0.009374780320284536,"152":-0.009604405029313298,"153":0.033765433284444105,"154":0.009699476474933064,"155":0.06816372775385687,"156":-0.0796675065250728,"157":0.03246587561536476,"158":-0.0888279309164329,"159":-0.13332011827862897,"160":-0.02406233600975554,"161":0.02848387453387843,"162":-0.00012489574075019705,"163":0.06919170965854556,"164":-0.05720250107291053,"165":0.11352244816779543,"166":0.00282321295252221,"167":-0.10673600303724119,"168":-0.06919833315778376,"169":0.16520770113015476,"170":0.14063469853053404,"171":0.024768692020469336,"172":0.08352100983831565,"173":-0.14058020623051173,"174":-0.08537019761414834,"175":-0.06211114537960896,"176":-0.13401867785153593,"177":0.07757688183711034,"178":0.017853152331654142,"179":-0.04545515384935303,"180":0.12059132937045666,"181":0.0077900235915831706,"182":-0.02233186200765546,"183":-0.009335725715640028,"184":-0.08070270565558176,"185":-0.05924170476341305,"186":0.09560821782438185,"187":0.06503976006887385,"188":0.025490903416149555,"189":-0.11906072007126184,"190":0.10045035137856922,"191":-0.046079196512121064,"192":0.0015949197380570488,"193":-0.017478069399861837,"194":-0.07648084835470874,"195":0.034723355260117925,"196":-0.12470077537844018,"197":-0.19982740665926127,"198":0.001554950158348114,"199":0.00042194333589128824}},{"sx":5,"sy":5,"depth":8,"w":{"0":-0.009620353150909755,"1":0.08294721783932518,"2":0.05841241247624398,"3":-0.042868130064178965,"4":0.13911141044365355,"5":0.05851097349323994,"6":0.09743875550127461,"7":-0.06030567424990302,"8":-0.03717844400922545,"9":0.10067401233153016,"10":0.05330111064043347,"11":-0.019549547749684208,"12":-0.09518364232675632,"13":-0.0630769058158829,"14":-0.08722128680357688,"15":-0.20701728385068263,"16":0.012507233415770832,"17":0.0015863461506338955,"18":-0.0973338203927027,"19":-0.015208824345020477,"20":-0.09464601344480965,"21":0.0888303801124783,"22":-0.0632764327303123,"23":-0.10448288218233502,"24":-0.28803575623965544,"25":-0.10266672092219564,"26":0.1225030340136337,"27":-0.07042742252193719,"28":-0.13875412168613194,"29":-0.027155061880350235,"30":-0.044754762661960566,"31":-0.0405313730271452,"32":-0.04065907398479722,"33":-0.028258628902691107,"34":-0.08640639259966786,"35":-0.07661436654710084,"36":0.018331823067861543,"37":0.13944426189060016,"38":0.06314615129834686,"39":-0.04308632603111405,"40":0.0612561129878196,"41":-0.09863448127341343,"42":0.14829288138647537,"43":0.040966934518142456,"44":-0.10396322223072961,"45":0.0902401314790606,"46":0.06947275267442604,"47":-0.04487200800710899,"48":0.02846873735270995,"49":0.06296430519400249,"50":-0.004832786325005951,"51":0.14311196606070406,"52":-0.22359601017453026,"53":-0.006259848372089538,"54":-0.17626735215452338,"55":-0.1426377676730808,"56":0.13216384004175588,"57":-0.021991319766079764,"58":0.07835196071783856,"59":-0.018237480006809255,"60":-0.11007810274503102,"61":-0.049117478609231865,"62":0.0752432377963829,"63":-0.13750510516050718,"64":0.01441170253477542,"65":0.03319992044501658,"66":0.07978996641083737,"67":0.1075074358368261,"68":-0.21953158309995677,"69":-0.04721837367319019,"70":-0.0071442487879628935,"71":-0.14647235826791727,"72":0.05554992287919819,"73":0.0012028281653532636,"74":-0.025112983675928294,"75":0.08221589819372674,"76":-0.09087723413337284,"77":-0.04604823627464916,"78":-0.02762085486667139,"79":-0.030074009693274773,"80":0.005105002978887342,"81":-0.05985332623863179,"82":-0.015918422352121157,"83":0.12269392614755092,"84":0.07489118030457716,"85":0.034354241124303166,"86":0.14904409260708604,"87":-0.05070778367095022,"88":0.01131817677922218,"89":0.09316011020944086,"90":0.015278244836413773,"91":0.11489817686709618,"92":0.006644445380813201,"93":-0.18905917389086035,"94":-0.0967519014494795,"95":-0.15141287741523246,"96":-0.03417753857067219,"97":0.09464662831937962,"98":-0.003227243390763156,"99":-0.12424522211380748,"100":-0.004740836863995656,"101":-0.07610268424156474,"102":-0.014001843037346896,"103":-0.15516977331782117,"104":-0.08288986731565882,"105":0.03919067363515153,"106":0.1247641795899993,"107":0.10049181049111397,"108":-0.030917272594628356,"109":0.07037720749879722,"110":-0.11644402731692352,"111":-0.08966841803404571,"112":0.04772130110859055,"113":0.07238397298158157,"114":0.04262889943310288,"115":0.04620534171603197,"116":-0.02372168761343891,"117":0.00849789608273559,"118":0.005017832659205055,"119":-0.08909805933660152,"120":-0.1313848031188645,"121":0.0955019121770504,"122":0.017575818777413033,"123":0.05996990055489549,"124":-0.006403989625384171,"125":-0.019967612921990372,"126":-0.06222236386021106,"127":-0.07274490507759715,"128":0.058286218758393765,"129":0.14798769432397565,"130":-0.07914419047879599,"131":0.07585791805480406,"132":0.003213383458343959,"133":0.048825053355730466,"134":0.0869982698012878,"135":-0.08290355494472788,"136":0.025703697654444684,"137":0.09671761110969265,"138":-0.0005567271124758532,"139":0.056360936219453754,"140":0.1344732453735041,"141":-0.08346437967576413,"142":0.15333447009606135,"143":-0.1661883828498227,"144":0.12358668811625226,"145":0.15562861151505836,"146":0.0019021407196751954,"147":0.06267256534165304,"148":0.1771190001054276,"149":-0.06662737337257148,"150":0.07471081146956696,"151":-0.012279984457240403,"152":-0.01637746669266718,"153":0.10343244678144102,"154":-0.025928656913676577,"155":0.0736301944519126,"156":0.08879756830114291,"157":0.0880879558810859,"158":0.03631956715056663,"159":-0.1600255646862862,"160":-0.17284022743050134,"161":-0.03728361754337102,"162":0.051665269294460234,"163":-0.03803320135298989,"164":-0.11601583230957492,"165":-0.02276495616646621,"166":0.09582847276280346,"167":-0.06851780526686715,"168":-0.13114618110513115,"169":-0.15879931237856992,"170":-0.06440124090570305,"171":-0.26914158927313353,"172":0.11943276316230503,"173":-0.12622520478514315,"174":-0.17257499965891696,"175":-0.19116107219797354,"176":-0.12448164419963695,"177":0.12103194740529757,"178":-0.12966636223697123,"179":-0.0560037865589503,"180":0.137738115945318,"181":-0.008756946756310682,"182":-0.12407410035083082,"183":0.010737770019721045,"184":-0.002851219747240636,"185":0.01783203950853883,"186":-0.008901463205620795,"187":-0.0023837025985296084,"188":0.01169027387607835,"189":0.04701643602202975,"190":-0.016179459952508468,"191":-0.07524498789468888,"192":-0.1122891722272793,"193":-0.05375482259521007,"194":-0.11127690910179361,"195":0.07150750951175038,"196":-0.13226718655118147,"197":0.0015015427987292974,"198":0.10894463480617572,"199":0.00005613552723175453}},{"sx":5,"sy":5,"depth":8,"w":{"0":-0.1315314700440739,"1":0.01865692013509888,"2":0.049579605736670466,"3":0.004608114638212493,"4":-0.03306972651427609,"5":0.10069503893802124,"6":-0.014342652434226487,"7":0.019193209006873217,"8":-0.2089067596481364,"9":-0.025010229622431445,"10":-0.19429750191395018,"11":-0.049198961598399316,"12":0.05860774073562935,"13":0.04027487456102378,"14":-0.04069681521625974,"15":-0.02714423960329177,"16":-0.09238013091505239,"17":-0.12015225137502931,"18":0.02401567856125356,"19":-0.0632150941290151,"20":-0.15479617766475018,"21":-0.025882777092107755,"22":-0.03865727447832923,"23":0.05868719186667821,"24":0.07449078961396267,"25":0.0018751634826135381,"26":0.07275507780262887,"27":-0.0389964785001235,"28":0.07043810516787684,"29":-0.08210446554775434,"30":-0.14742657596845346,"31":0.010337738254217976,"32":-0.023609134200237726,"33":-0.16608061140524327,"34":0.09488819674511006,"35":-0.1199961676396806,"36":0.08256508864605236,"37":0.023461175439802244,"38":0.017041379276978828,"39":0.08520349415255452,"40":-0.008797804624709969,"41":-0.15410636278205642,"42":-0.017564178710895176,"43":0.0194010595393859,"44":0.051410286401084845,"45":0.02364649815560624,"46":0.03879395213160509,"47":-0.07652445969802057,"48":0.05410456408349092,"49":-0.08021952541000739,"50":-0.035260143782399014,"51":-0.01821268133861008,"52":-0.04866949734142997,"53":0.06670528410175926,"54":-0.052336276758567314,"55":-0.038987822225540064,"56":-0.027486788655210405,"57":-0.11678671758945766,"58":0.035598104892418415,"59":0.1364810726942931,"60":-0.012510372038720333,"61":-0.03910786388413974,"62":-0.04765233384127852,"63":0.054429073336317454,"64":0.17691410409857514,"65":-0.03146963063637713,"66":0.049288953466595266,"67":0.030941942597015937,"68":-0.0009817457387846784,"69":0.022087950105154273,"70":-0.03695737809019384,"71":0.0381026200732489,"72":-0.02137159164703384,"73":-0.017997952045363235,"74":-0.017940274058201314,"75":-0.00011923627400487336,"76":0.028111642750871996,"77":0.03036572503503801,"78":0.061422293549800604,"79":0.010612484972922276,"80":-0.1271850855905437,"81":0.04737741219256189,"82":0.10015988889532537,"83":0.025121538203084433,"84":-0.017792144120914604,"85":0.07834321059730544,"86":0.06026929066420504,"87":-0.12750963167414467,"88":0.057388474364003204,"89":-0.01430765241991839,"90":0.060277454161448085,"91":0.05921018483425592,"92":-0.04930856730794044,"93":0.13341405786472973,"94":-0.07450531054462509,"95":-0.1457594580134,"96":0.15680028279030428,"97":-0.16619292331828917,"98":0.018226813170811703,"99":0.16465332242288466,"100":-0.008712357130535624,"101":-0.08373144822108987,"102":0.028762889866848166,"103":-0.05583194694712947,"104":-0.05928156421544648,"105":-0.08487920494812862,"106":0.07345627930526934,"107":-0.012145217288545446,"108":-0.050450402270755465,"109":0.08873563194411623,"110":0.059969468670508536,"111":-0.09518599132883618,"112":-0.061259009242172716,"113":-0.0008082910359591504,"114":-0.061472169164088895,"115":-0.05638130591165217,"116":-0.06680439808193374,"117":-0.018893764638408663,"118":0.04974208463851514,"119":0.014146755434401902,"120":-0.0015464533879635586,"121":0.2055440332434748,"122":-0.05239361641161069,"123":0.08422979080328749,"124":0.022634032587602552,"125":-0.0767727702619467,"126":0.1963279287987005,"127":-0.13385602863874657,"128":0.036303063301739796,"129":-0.04121591273310702,"130":0.03999013933279042,"131":-0.07683732086818044,"132":-0.013439107342604718,"133":-0.026020820438205906,"134":0.11577248543203261,"135":-0.10084252158408678,"136":-0.025116355960462175,"137":-0.05106797873531941,"138":0.06896835367099628,"139":0.11344087723569227,"140":0.10797231126441317,"141":-0.008480478947873234,"142":0.02347855069147529,"143":-0.112035583741732,"144":0.015560754653997283,"145":0.06497659309453871,"146":0.12739449124141555,"147":0.02334074217312004,"148":0.08845742526445725,"149":-0.01845280182346901,"150":0.024809509310787868,"151":-0.07070948839765985,"152":0.03068160736388762,"153":-0.09331802032022574,"154":0.041711483873261436,"155":-0.05749721202522092,"156":0.07309212609148528,"157":0.1467700583573363,"158":-0.0658844952811287,"159":-0.027756342500499086,"160":0.011137089137346295,"161":0.03305836465403554,"162":-0.09355977528186117,"163":-0.06506531999004646,"164":-0.04887412164991759,"165":-0.07304681040743521,"166":0.11690543917431377,"167":-0.11971699623390827,"168":-0.04215174286106293,"169":-0.03741612197981349,"170":0.07280177859493346,"171":0.0030021459798142656,"172":-0.013348817244184626,"173":-0.1788057996881888,"174":-0.03158996326067911,"175":-0.06065189559219898,"176":0.06387729492200654,"177":-0.08416043553002134,"178":-0.11330726529909473,"179":0.18491708230832501,"180":-0.060027951037101526,"181":-0.11487721759388972,"182":-0.056568521049281575,"183":0.05219429976626519,"184":0.001957330641642519,"185":-0.10281023311172158,"186":0.06625709217818526,"187":-0.06643107435987176,"188":0.04098165929551862,"189":0.012510720146619164,"190":-0.016270106482751186,"191":-0.13643515316546168,"192":-0.03777312766620259,"193":0.03377532241635201,"194":0.019268001891459087,"195":-0.087577324500933,"196":-0.1447828952173721,"197":0.09635754135783671,"198":-0.11425301663777285,"199":0.12014117782203343}},{"sx":5,"sy":5,"depth":8,"w":{"0":-0.02885107779219538,"1":-0.05619685111769116,"2":-0.06125383127051243,"3":-0.043113191159316264,"4":-0.09101297639153531,"5":-0.11534673701830253,"6":-0.13125670231960498,"7":0.0446956189034939,"8":0.056228161226537864,"9":-0.05189052797785561,"10":-0.11531201322719145,"11":-0.055381642575733546,"12":-0.10822932881345683,"13":-0.10209181735019701,"14":0.1093986550397413,"15":0.1595471078095172,"16":0.17203556394501016,"17":0.0027769561454567314,"18":-0.022428882527967455,"19":-0.021119803091834644,"20":0.1305194382724275,"21":0.0853112060800193,"22":0.0766860434618154,"23":-0.024895192958974605,"24":-0.0029719875575015637,"25":-0.026731926260850348,"26":0.19487365293911563,"27":0.06774264844764917,"28":0.06356138766402486,"29":0.04414790735303715,"30":0.09177247475225825,"31":-0.22288024450665966,"32":-0.1437331563040837,"33":0.007915998408013237,"34":-0.21439090669261127,"35":-0.16723434105221385,"36":0.0021549067735096633,"37":-0.11213451069537185,"38":-0.12973282307371597,"39":-0.0043707874401252515,"40":-0.11870027656614954,"41":0.054399755599148274,"42":-0.002493027202447533,"43":-0.03917573128324027,"44":0.007040364210147243,"45":-0.00567152622629781,"46":-0.030755700609895947,"47":0.08409879561499148,"48":0.04891656476988754,"49":-0.011016697789701425,"50":-0.17331919824383757,"51":-0.1016843895663653,"52":-0.1259188872596972,"53":-0.10071323467929141,"54":0.03484824428375476,"55":0.07546031859010999,"56":0.20841319479019071,"57":0.025329385223048305,"58":-0.021704666257914756,"59":0.07386884593251636,"60":0.029456595466487896,"61":-0.050705092055388624,"62":-0.00016786199255099544,"63":0.05979246246026743,"64":-0.0648602429935196,"65":-0.011655870017939444,"66":-0.0156378900159288,"67":0.041275326066072156,"68":0.00009957702567612399,"69":0.014219271490307675,"70":-0.013519754603922879,"71":0.040898409534686375,"72":-0.05658562192415482,"73":-0.020642013437536116,"74":-0.15312161880512026,"75":-0.18231363955077973,"76":-0.05664866792506813,"77":-0.07814433313917386,"78":-0.15367234032188148,"79":-0.02735817897045799,"80":-0.014843701038219607,"81":0.00710665938143073,"82":0.03121390871096334,"83":0.03606707607523088,"84":-0.17474349321978366,"85":-0.008610379400754261,"86":-0.08559185259242921,"87":0.02853101411051129,"88":-0.018601683868884555,"89":-0.08967047334018254,"90":-0.12326761205004631,"91":0.04569796676068668,"92":-0.09206127859357253,"93":0.017515727021745413,"94":-0.030026743404048723,"95":-0.007108890317924697,"96":0.08760319051115024,"97":-0.025430669688552076,"98":0.01132268237827544,"99":-0.04455467995591987,"100":-0.11884129244625233,"101":0.04902547847583611,"102":0.04644827558534877,"103":-0.09260730104667855,"104":-0.04312412643995148,"105":0.1268968834589581,"106":-0.02078808039206143,"107":-0.03757911659474279,"108":-0.05491275094291155,"109":0.017856189250994803,"110":0.05399662913308611,"111":-0.16195437212504843,"112":-0.002941045981021346,"113":-0.13924033650216666,"114":0.023081483712822662,"115":-0.13007005330043214,"116":-0.2769863451964476,"117":-0.04665952063054119,"118":-0.10406244602302936,"119":-0.07110114774576763,"120":-0.012357010912293244,"121":-0.1701900270672203,"122":-0.06209945213427974,"123":-0.034425231651169896,"124":-0.2291820897743921,"125":0.029020549933060073,"126":-0.15481017143470668,"127":0.010731512174290098,"128":0.038162343622129266,"129":-0.04390660206412948,"130":0.007633768132061106,"131":0.028835839560488356,"132":0.06412623849787671,"133":-0.05479084566928616,"134":0.01766660461758258,"135":0.05355629942574377,"136":0.057454205480003843,"137":0.07758965198348608,"138":0.09797759900121066,"139":0.051267246837125524,"140":-0.13357091806599097,"141":-0.06344173438714885,"142":0.044168662834398714,"143":-0.06636439605296847,"144":0.06938364661498923,"145":0.010956687875660556,"146":0.05125268641136475,"147":0.17279306860919666,"148":0.0891265886092231,"149":-0.015230211051902592,"150":0.026395176742082558,"151":-0.2356181131066054,"152":0.07043125992810995,"153":-0.025682511002822657,"154":0.018117706233034592,"155":-0.06350371108546242,"156":-0.15489969959543362,"157":0.006943627981626013,"158":0.15277521024140187,"159":-0.0767808258479452,"160":0.11358359209866342,"161":0.01971702094350963,"162":-0.08314566515429093,"163":-0.008949295286471705,"164":-0.12113289097257586,"165":-0.18058586605696664,"166":-0.08062785721235752,"167":0.04369513939877971,"168":-0.014177835461826993,"169":0.03874840914035738,"170":0.008678647820316028,"171":0.024344745996021586,"172":0.06979489408238214,"173":0.03852436892357545,"174":0.010035216196816391,"175":-0.022932084662923034,"176":-0.016080141811316572,"177":0.05480217864815061,"178":0.05959252814854504,"179":0.020934442919039706,"180":0.1130643178290886,"181":-0.03743973629516336,"182":0.018776050177887152,"183":0.015937191270941484,"184":0.09764842223982745,"185":0.16368599529901545,"186":-0.08381339433190257,"187":0.18362102292828625,"188":0.06803110018117667,"189":-0.049042759402784054,"190":0.16797424451766801,"191":-0.056980414137226924,"192":0.1531993405248435,"193":0.04037214417028614,"194":0.04973430219463612,"195":0.17724698258864816,"196":-0.08728762573927125,"197":-0.12602657327274538,"198":-0.029562912593136766,"199":-0.2066935281097863}},{"sx":5,"sy":5,"depth":8,"w":{"0":-0.02608210143910651,"1":-0.059499758377843,"2":-0.03375091894633724,"3":-0.06406133131510353,"4":-0.0353105164277129,"5":0.04459972355734198,"6":0.034383296861050974,"7":-0.04247984341646194,"8":0.006955367786159804,"9":0.19721544067060232,"10":0.04604275308093972,"11":-0.03794339558627959,"12":0.05629593538828198,"13":0.10639051806889321,"14":-0.02033538062066079,"15":-0.03674294377327146,"16":-0.09024991208212618,"17":0.06820655164597915,"18":-0.05970807828155852,"19":-0.0655928051537954,"20":0.06572824612800703,"21":-0.15454447305593377,"22":0.05619277636736709,"23":0.0023194058456540404,"24":0.06186620595834598,"25":0.21259779867637776,"26":-0.011454509595427036,"27":-0.04492614804402306,"28":0.13533844001665474,"29":0.0006932275243398088,"30":0.11985990702850922,"31":-0.1321948897776447,"32":-0.11603165536210364,"33":0.27170354438816485,"34":-0.05141785512421,"35":0.08007447769059968,"36":0.07159583257914057,"37":-0.1557582041245392,"38":0.18256090020190294,"39":-0.0451250277585961,"40":0.009403833803306018,"41":0.02186621295031433,"42":0.07503199234784995,"43":0.008686779304684486,"44":0.04798649989732341,"45":-0.0782618176123376,"46":0.0016125626357395488,"47":-0.05963517390332761,"48":-0.002802852146063622,"49":0.05657913244290861,"50":0.021420760011200028,"51":-0.13839768993222074,"52":-0.1296385812734903,"53":0.02896950447657317,"54":-0.09221907989033674,"55":-0.14834523515170192,"56":-0.18387708908018047,"57":-0.06668385945187896,"58":-0.035077493332671246,"59":-0.047175621823950374,"60":-0.001980725758298543,"61":-0.03145322939048655,"62":-0.1334150080309204,"63":-0.10488670204936709,"64":-0.07541973752286633,"65":0.01822665268315431,"66":-0.04484440303336379,"67":-0.1539436654864391,"68":0.0641709271142529,"69":-0.014256231815868636,"70":-0.028525876497924506,"71":0.08627952846354271,"72":-0.004008922108745037,"73":-0.10022251616582702,"74":0.0626548780231485,"75":-0.019149143430912646,"76":0.0071323995215901515,"77":0.06151113444436443,"78":-0.0951919774997735,"79":-0.09866511455371786,"80":-0.05164268483760513,"81":-0.16162014124267426,"82":-0.012286965625524138,"83":-0.01354645268194584,"84":0.03459919846715829,"85":-0.013387695935793247,"86":-0.02543056294899911,"87":-0.03769322906234887,"88":-0.09106710303623373,"89":-0.07219710511425867,"90":0.015186627908128567,"91":-0.1379184816511666,"92":-0.034553955437148856,"93":0.025720490333057556,"94":0.02218290757323826,"95":0.01640163303847564,"96":-0.10006113550715869,"97":-0.0894430593563271,"98":0.09645301707714307,"99":-0.03265244585101272,"100":-0.08543948112236736,"101":-0.08735321950879878,"102":0.027534795558177234,"103":-0.058904138799562404,"104":0.04984218499682371,"105":-0.03293314547120515,"106":0.015808243802653894,"107":0.02780186466247386,"108":-0.07298869535796766,"109":0.016218235620323027,"110":-0.17047342363900744,"111":-0.08060045091904293,"112":0.06895244049753078,"113":-0.16845747710341097,"114":-0.011527636926274313,"115":0.05554083147098766,"116":-0.04213548085742825,"117":0.019768699632984096,"118":-0.03323773582805994,"119":-0.03696781687291357,"120":-0.05498003448078313,"121":-0.07859364665984352,"122":0.06486079549173861,"123":0.024104209680751297,"124":-0.004493411988668761,"125":0.07444882299528814,"126":-0.06318813041405845,"127":0.1075122167665145,"128":0.038169731880530744,"129":-0.0142723035306699,"130":-0.03135747791747856,"131":-0.2173495205480142,"132":-0.05264181797453851,"133":-0.07149821057604143,"134":-0.028989313850588495,"135":0.025750480672864225,"136":0.045005651198905726,"137":-0.071230455957481,"138":-0.056207870112376074,"139":0.12122861659928004,"140":0.07139547435519651,"141":0.027294138717595187,"142":0.123256577520217,"143":0.04423472618791212,"144":0.03489402522364548,"145":0.05009273126720381,"146":0.01423608168318809,"147":0.2897354984663179,"148":0.024619362026145338,"149":0.10053954988370982,"150":-0.027226632683356754,"151":-0.09671960468199814,"152":0.06420965038462818,"153":0.10586748451864558,"154":0.14275498207051604,"155":0.015176788264799108,"156":-0.10749378704603639,"157":0.01989650679498524,"158":-0.02212565522392826,"159":0.09321070481858793,"160":0.09302165677792752,"161":-0.10572995363352615,"162":0.009316970018050442,"163":-0.0863905529461443,"164":0.01656649151785662,"165":0.001195689034428635,"166":0.07167750090227812,"167":-0.08577216664866782,"168":0.0392887303152324,"169":-0.13663142219928848,"170":0.01024109753543792,"171":0.12994269605106853,"172":0.044322860107605035,"173":0.03872888083372723,"174":0.1520859774404141,"175":-0.10002973157242118,"176":0.11976877439306005,"177":-0.03883272129233299,"178":0.0283178788990823,"179":-0.032573492407065884,"180":0.07084376731380916,"181":-0.079043156752837,"182":0.21327601703611884,"183":-0.010001490527976586,"184":0.01376011979986872,"185":-0.03340011113515955,"186":0.1107621571906706,"187":-0.0889558177343772,"188":0.02872592655729991,"189":0.0826827254310272,"190":0.015965327657575617,"191":-0.10990147054636881,"192":-0.052791207106880636,"193":-0.0005673511844435724,"194":-0.03962899470500713,"195":-0.028580157957468308,"196":-0.0920854132525498,"197":0.01668460229625972,"198":-0.06577845429746969,"199":0.07523134769199889}},{"sx":5,"sy":5,"depth":8,"w":{"0":0.030779556378571556,"1":0.051595568967765855,"2":0.05872915020655752,"3":-0.08113062349265616,"4":-0.022629792326138102,"5":-0.015485845293702413,"6":-0.0066683610099571135,"7":-0.1076953341105048,"8":0.015083471308119416,"9":-0.10541901591061038,"10":0.06271523438216996,"11":0.02166263084832228,"12":-0.0302381622141438,"13":-0.015342857609533246,"14":0.1191369099161176,"15":-0.06001900025701389,"16":-0.010369361726495437,"17":0.013209268283062162,"18":-0.006194419634101017,"19":-0.00964321994443734,"20":-0.07207432261020567,"21":-0.030072712918840536,"22":0.13612815352812985,"23":-0.022127268966954716,"24":0.06642232582633645,"25":-0.08199487258592493,"26":0.06997547421652042,"27":-0.025094898304480223,"28":0.008673763476610604,"29":-0.052519478238635946,"30":0.07144476023750677,"31":0.06500256105592475,"32":-0.1241943077000685,"33":0.005786949137717091,"34":0.04031089991698166,"35":0.02261625256934827,"36":0.0010216785042508145,"37":-0.03441809470578852,"38":-0.06645366107349679,"39":0.10698546548728757,"40":-0.07982388769734937,"41":0.0824202431736556,"42":0.024880649517416736,"43":-0.006104509935232302,"44":0.07891586571018776,"45":0.003974511738962632,"46":-0.0010737633135917888,"47":-0.062176275862255645,"48":-0.029356494072002217,"49":-0.11915276233996215,"50":-0.0579938885279124,"51":0.06082569090983597,"52":-0.08017898449557247,"53":0.0301066918901432,"54":0.05776663380572783,"55":0.01913767844837718,"56":0.14736546830044137,"57":-0.18940902581133104,"58":-0.04859414399880982,"59":0.018540890247981136,"60":0.016862768201013185,"61":0.12425909937468838,"62":-0.008081815389965209,"63":0.0987136852610058,"64":0.1878355542564885,"65":0.034042276765884436,"66":0.005240110091674767,"67":-0.09106370435262674,"68":0.012147962111711505,"69":0.006424343598162863,"70":0.08961140188108659,"71":0.09840559354720375,"72":0.016114807714448735,"73":0.1411701616092567,"74":-0.01058864808940495,"75":-0.13868956629140541,"76":0.0006374805137583164,"77":-0.04953734319127884,"78":-0.013352603491494199,"79":0.09475074670282863,"80":-0.07369242895993987,"81":-0.08226560462387136,"82":-0.12104423401453575,"83":-0.015616391398502258,"84":-0.018942908886080783,"85":-0.020516372990482964,"86":-0.11124686400808179,"87":0.1631373948274753,"88":0.05049208731527179,"89":-0.14815935978441844,"90":-0.19409551323547775,"91":0.07377648195649703,"92":0.006858355732803543,"93":-0.02032406399088156,"94":-0.021196904381946918,"95":0.021114963487288488,"96":0.0841578523388399,"97":-0.11677792759832607,"98":-0.046423190098343184,"99":0.013052590906162917,"100":-0.042967550148913465,"101":-0.13634853370485323,"102":0.012212277127485254,"103":-0.049068340432893556,"104":0.017734666536745946,"105":0.008500378075720015,"106":-0.04227711893120419,"107":0.013578877752211609,"108":0.05232920864542593,"109":0.10268635453191247,"110":-0.035002944676652055,"111":-0.1309748545397427,"112":-0.2367488193951673,"113":-0.09101854374902871,"114":-0.0054558508145512745,"115":-0.09126438902453465,"116":0.08150059802856263,"117":0.04897173715749166,"118":-0.0268643740339731,"119":0.05865233318098938,"120":-0.130567430999586,"121":-0.2727299782962227,"122":0.09796991736687677,"123":-0.06224576887831985,"124":-0.08060543985266518,"125":-0.050411634942498396,"126":-0.13322120123576692,"127":0.17027900574477767,"128":-0.012135385640686842,"129":-0.17295676242539537,"130":0.10956709388024806,"131":0.09580018404506878,"132":-0.16063137514060144,"133":-0.004098840299569868,"134":-0.023906849402001416,"135":0.20162966492348702,"136":0.09885550913635531,"137":0.01941778367400912,"138":0.01191110568137622,"139":0.1393764947144253,"140":0.035212086132366975,"141":-0.1273604060109526,"142":0.11390021454768964,"143":-0.0857055395304837,"144":-0.12505551527926434,"145":0.212668812576533,"146":0.13773767924651495,"147":-0.018161170870616018,"148":0.08376707053176785,"149":0.009563629510855388,"150":0.02079146529512935,"151":-0.008769673448208313,"152":-0.32753594270386654,"153":0.032959671661064366,"154":-0.1215576779870443,"155":-0.03367075026985423,"156":-0.08894310569615113,"157":0.014556227945561936,"158":-0.10473236950430687,"159":0.08518166564138822,"160":-0.01887060282563602,"161":-0.18710409063687583,"162":-0.008896466771686264,"163":0.04836827833630892,"164":-0.15198569666934267,"165":-0.07168128493175291,"166":-0.06566076934343863,"167":0.011816281636251043,"168":0.11972040883988169,"169":-0.0041935735157429405,"170":-0.037418452519118996,"171":0.11309300415227887,"172":-0.008420521830688057,"173":-0.11442134191915361,"174":-0.0672501251748272,"175":0.2364707125268224,"176":0.01495918654070503,"177":0.07095884922111703,"178":0.09849175476971281,"179":0.05665513651218075,"180":0.020716119733580823,"181":-0.0060241962490497035,"182":0.14234905768167855,"183":-0.08493835288771422,"184":-0.049904783262130444,"185":0.08840982381664012,"186":0.10872904774717923,"187":-0.09075571331599033,"188":0.03016360018799838,"189":0.002321579122230837,"190":-0.08125574042819814,"191":-0.17312383624059166,"192":-0.1473269518912306,"193":0.031291366678586584,"194":-0.10119261541454815,"195":-0.13069868102736823,"196":-0.14141756746372405,"197":-0.009418811832954151,"198":-0.028215902060900494,"199":0.012697413657097669}},{"sx":5,"sy":5,"depth":8,"w":{"0":0.012690738646073202,"1":0.021891870268447855,"2":-0.059968608062024954,"3":-0.0023220093003073596,"4":-0.13583638133604478,"5":0.018285068656651048,"6":0.006056527754111162,"7":0.06653575220249641,"8":0.11340353011471233,"9":0.027519422757495932,"10":0.020603056797421165,"11":-0.016834360759170136,"12":-0.02664550488193764,"13":0.007754595766446665,"14":0.012966014276561317,"15":0.08311541524421015,"16":0.22628187207477166,"17":-0.056717654594993894,"18":0.16946326941269738,"19":0.07199290704196097,"20":-0.0690857799794515,"21":-0.03243855749550041,"22":0.1531751711306128,"23":-0.048397344073312684,"24":-0.0426021036078252,"25":-0.046496374969920415,"26":0.14931321575746306,"27":-0.06456352155017156,"28":0.16296767664491715,"29":0.07741576107739374,"30":0.02364780892692893,"31":-0.07945315159513724,"32":0.04240426717350787,"33":-0.10374277267704912,"34":-0.01765673287224992,"35":0.04662520495390017,"36":-0.0373377780751166,"37":0.1883893965156237,"38":0.09304370211384151,"39":-0.17453635884183805,"40":0.016191031918059973,"41":0.06979840305325263,"42":0.011900710102661766,"43":0.007558349092587345,"44":0.18808662784599123,"45":-0.05731740323980455,"46":0.05532253508472815,"47":0.01934195989721799,"48":-0.014003569834989136,"49":-0.059456699785140905,"50":-0.07281838490382711,"51":0.13510277278999058,"52":0.04600283251446226,"53":-0.020491379257720887,"54":-0.02210550198740593,"55":0.00992536627584795,"56":0.06794888196032409,"57":0.057182946671743076,"58":-0.04219365886483703,"59":0.08143446774337515,"60":-0.01937975896958117,"61":0.1846881155234053,"62":0.036695131385402195,"63":-0.032900060101326324,"64":-0.025217813209862855,"65":0.004434876976117132,"66":0.18077364572483234,"67":0.1659759662965191,"68":-0.08407435233319914,"69":0.031194914903522837,"70":0.07517760681003016,"71":-0.10992157602880749,"72":0.09319916475894809,"73":0.060831026248704435,"74":0.08944619384105182,"75":0.13460857757034672,"76":-0.1403501626479351,"77":0.13108952434908464,"78":0.00799297290420986,"79":-0.014465792099906892,"80":0.10864343493109718,"81":0.01784909001543041,"82":0.07680873796692819,"83":0.029397141185681566,"84":0.027097759756663405,"85":0.018755551782932138,"86":-0.0471619676983608,"87":0.10333830997794748,"88":-0.10076158592937638,"89":-0.13996323912620157,"90":-0.0013416729550357203,"91":-0.10052354201795276,"92":0.06538927723444865,"93":0.06428024183946587,"94":0.0011952033586892338,"95":-0.008794250531374911,"96":-0.2081611012573482,"97":0.0206175296958599,"98":-0.06581852072184721,"99":-0.06126287419578011,"100":0.07951356174583112,"101":-0.06597437167840484,"102":-0.11334110302872727,"103":0.10227158715989067,"104":0.04322485438072221,"105":0.08543847964560324,"106":0.006880576446118664,"107":-0.04686263398071856,"108":0.17339383494346905,"109":-0.1121974811221726,"110":0.04655088383297114,"111":0.0905997947493787,"112":0.13121072246712878,"113":0.14889352429795058,"114":-0.16747452326576545,"115":0.21436525301505455,"116":0.2060126503030837,"117":-0.11172250116997538,"118":0.12541643523498494,"119":-0.02440135118654751,"120":-0.09261707173864787,"121":0.0038423186354735166,"122":-0.016507536632843982,"123":-0.11682679976184925,"124":0.11967566010839628,"125":-0.041284549965001194,"126":0.059199259233011475,"127":-0.03866775558137628,"128":-0.0825123893614456,"129":-0.013682346493412012,"130":-0.04799292079895371,"131":0.12053045117518767,"132":-0.10109078164773519,"133":-0.05369027694636563,"134":-0.02544263251689679,"135":0.06064186868811086,"136":-0.040120747882034936,"137":-0.11509894055357006,"138":-0.14701995994745642,"139":-0.13460504411660495,"140":-0.1833625428437224,"141":-0.2022341535069032,"142":-0.04077056272361693,"143":0.01198116678669789,"144":-0.11317516916156882,"145":-0.0701441423717545,"146":-0.011174773836252112,"147":-0.18774805365362296,"148":-0.05568108203595239,"149":-0.16031932931852785,"150":-0.08660649066906198,"151":0.15156158490722046,"152":-0.1329644903655528,"153":-0.03758681666141276,"154":-0.11998606382406615,"155":-0.06084856183081757,"156":0.11541535526919308,"157":0.15627626894993982,"158":0.028510000076608408,"159":-0.08775012528638987,"160":-0.23705200689603784,"161":-0.03232818333768377,"162":-0.003241259006551574,"163":-0.024380898202600074,"164":0.09571147649055563,"165":-0.04327229099932141,"166":-0.007150730987002634,"167":0.058953544763094286,"168":-0.1612679746314673,"169":-0.022374212488717213,"170":-0.006282650152830898,"171":-0.1426789207812479,"172":-0.06972581135440722,"173":-0.15948268581803474,"174":-0.2263843353049047,"175":0.25716980767776887,"176":0.0675080817963059,"177":-0.2115950914703406,"178":-0.011166764869929648,"179":-0.028391330757036193,"180":-0.025806774285000098,"181":0.007721062355164381,"182":-0.14880465817752594,"183":0.037500608466988855,"184":-0.0951502678137311,"185":-0.06762554739876893,"186":0.11717943010893428,"187":-0.048159319598923195,"188":-0.1259898271153138,"189":0.013809054169621575,"190":0.028452631478665648,"191":-0.057221639288805,"192":-0.13236549514404625,"193":-0.11837681405068236,"194":0.03657615410940373,"195":0.001260097344195368,"196":-0.0029419528945836453,"197":-0.08874170398082268,"198":-0.09073760597890823,"199":0.011048481632064719}},{"sx":5,"sy":5,"depth":8,"w":{"0":0.11406881251587851,"1":-0.06881895084139247,"2":0.003661768352677217,"3":-0.04487495848080325,"4":-0.08053833372947772,"5":-0.06871210087540552,"6":-0.05615187929691099,"7":-0.017490619529297907,"8":0.028316147176929044,"9":-0.04870971194989018,"10":0.046138994203607626,"11":0.1833280095406875,"12":-0.19075822740769174,"13":-0.06676048599665999,"14":-0.052219897693479816,"15":0.1600948304961161,"16":0.2026629003261034,"17":-0.019280859417593152,"18":0.09233301597427687,"19":0.11048532942522643,"20":-0.025767225885184413,"21":-0.18722448484891696,"22":0.05799532767466296,"23":-0.1220520558869539,"24":0.013995552943810234,"25":0.004534716081310671,"26":-0.007498565016794451,"27":0.022834549006098846,"28":0.0858016767477892,"29":0.023994217243297575,"30":0.13103869663755288,"31":-0.1575005384288506,"32":0.21218593703442862,"33":0.031373809329117396,"34":0.04697293551458253,"35":0.11900143181631634,"36":-0.11646816417954921,"37":-0.04495179714066733,"38":0.05191320559297301,"39":-0.12043239731102208,"40":0.0668163536413537,"41":0.16201299718761886,"42":0.06875053610947719,"43":0.039151661228800164,"44":0.056676646869445686,"45":0.06500614304402344,"46":0.1724297914060299,"47":-0.056341004118030905,"48":-0.02547686320656627,"49":0.1166462575595088,"50":-0.031105562367192603,"51":0.06983509094529425,"52":0.16096528017590597,"53":-0.20182731890195243,"54":-0.026331015465391305,"55":-0.032506191823388014,"56":0.004518403151882231,"57":0.09836413597718788,"58":0.09051372799566554,"59":0.16504873163458633,"60":0.1361429456563365,"61":0.023257167051301805,"62":0.1333500957321321,"63":-0.09917361070878251,"64":0.09084931448382179,"65":0.21762279172557825,"66":-0.06586766163843483,"67":0.1723190369221168,"68":0.09004153928846205,"69":-0.08130701934990074,"70":0.19665100039149974,"71":-0.1498294542251606,"72":0.13261575162688619,"73":0.1168492540256191,"74":0.055373368122413884,"75":0.09215855097039337,"76":0.041103151771409316,"77":-0.13998805122323393,"78":0.11943447729369643,"79":-0.037350156132266596,"80":-0.1530142497067109,"81":0.05600658213418741,"82":-0.004096199610124545,"83":-0.12418535035357608,"84":0.024466052521461296,"85":-0.026128501078950754,"86":-0.08269647449712472,"87":0.04156373901111808,"88":-0.08167529018945681,"89":0.19168663159554003,"90":-0.07612325827929996,"91":-0.10313949198498798,"92":0.03201915922377774,"93":-0.012453160523267531,"94":0.10454946312104363,"95":-0.06506091521495462,"96":-0.08209560748376019,"97":0.020785015018742862,"98":-0.14317755793609188,"99":-0.056946221019609534,"100":0.2542231329308848,"101":-0.06263656110296399,"102":0.06719674813810711,"103":-0.1323297840819235,"104":-0.12555834812683464,"105":0.18307572353439566,"106":-0.03249338112297593,"107":-0.045683390463472834,"108":0.114007451217311,"109":-0.04303519274474212,"110":0.16730375375087575,"111":-0.21065647923097583,"112":0.026220104249334727,"113":0.13992785550363349,"114":-0.2685062052666035,"115":-0.015472362946811131,"116":0.054449331021418426,"117":-0.07677705222090804,"118":0.014411754212081471,"119":-0.12303776261824353,"120":-0.2166899446242889,"121":-0.06625482500534796,"122":0.08066156854772868,"123":-0.10924289286211218,"124":-0.07708875107501388,"125":0.19570468831450988,"126":-0.143442554389172,"127":0.01052627962095241,"128":-0.0899452437058716,"129":-0.030468804758405816,"130":-0.12405141750202829,"131":-0.08739745944175482,"132":-0.09080886791867646,"133":-0.0030545815105722214,"134":-0.2617010676098149,"135":0.11659348791142361,"136":-0.1832083396592209,"137":-0.022376722194697968,"138":-0.1058272175261549,"139":-0.19208247485550387,"140":-0.168702609575592,"141":-0.0979675811259249,"142":-0.025802938212225627,"143":0.01703415548359529,"144":-0.05042535154975223,"145":-0.10828909736692637,"146":-0.052392719042968196,"147":-0.1437253985782536,"148":-0.03339205517033408,"149":0.06811449659381365,"150":-0.19559004613744455,"151":0.09720448653792439,"152":0.014724999741582749,"153":-0.09769513061588873,"154":-0.11069369055635604,"155":0.008056968781432439,"156":-0.0075049590489639825,"157":0.028376376115582497,"158":-0.1497675408534208,"159":0.005573301767357245,"160":0.08076196934185886,"161":0.017023408562409286,"162":-0.10212532566749347,"163":-0.05323467899916288,"164":-0.059630106395014634,"165":-0.022796393156062328,"166":0.07322750876845789,"167":-0.011941528720978905,"168":-0.063992952981187,"169":-0.11972869127625942,"170":0.025316045405697974,"171":-0.049350123177153156,"172":-0.012422423883798698,"173":0.012239088143403928,"174":-0.15839622459071068,"175":0.036713175461485024,"176":-0.032669239634948624,"177":-0.0614995765662772,"178":0.033056415608899686,"179":0.10348207614205163,"180":-0.10157290337235514,"181":0.06817903326767442,"182":-0.2011305709593405,"183":0.1505141290999565,"184":0.06626201609966524,"185":-0.19070204162123194,"186":0.020991002197223843,"187":0.011415342929440688,"188":0.058860616023233316,"189":0.008804709471175091,"190":-0.031914468566239584,"191":0.1478838314703072,"192":0.1362886366293396,"193":-0.12467592892205538,"194":0.0054077466528336705,"195":0.020150621685028007,"196":0.0814604307285524,"197":0.08095467530872097,"198":-0.12940365916703578,"199":0.1473643592053152}},{"sx":5,"sy":5,"depth":8,"w":{"0":-0.08449301025944418,"1":-0.033089362897719514,"2":0.031885404025227757,"3":-0.08225834627202454,"4":0.004903330169503173,"5":0.03010024764987674,"6":-0.052167126425160436,"7":-0.028562654061562102,"8":-0.03693708112933071,"9":-0.016138489700548753,"10":0.011980547763374682,"11":-0.08529399176634081,"12":-0.03349584258811543,"13":-0.052983561673901614,"14":-0.2316463873199198,"15":0.08752367562047714,"16":0.062386415978308504,"17":-0.13703416952903597,"18":-0.09349144321773792,"19":-0.1594263704855566,"20":0.0017359970176861687,"21":0.021617618055457272,"22":-0.15985546579842513,"23":-0.06831056114054844,"24":-0.09710848425124484,"25":-0.0610109439014987,"26":-0.07487233508560906,"27":0.006615480732483392,"28":0.016531327542268257,"29":-0.008258009522478803,"30":-0.1637005684556504,"31":-0.05049493763391812,"32":0.05877221118473543,"33":-0.04093567722548964,"34":0.03812716067252034,"35":0.05134932865169944,"36":-0.06266046986423876,"37":0.042188567426461286,"38":-0.006957637929298797,"39":0.021045496606150127,"40":0.07727346174681582,"41":0.1345754106350413,"42":0.0520441131755411,"43":-0.052746575453789954,"44":-0.05807219219742837,"45":-0.009022221919525886,"46":0.020958580900386027,"47":-0.03183806752570665,"48":-0.06321476627174125,"49":-0.08942556682480421,"50":0.05116313736212563,"51":-0.09267354952806836,"52":-0.18707278576333944,"53":0.022252397874080232,"54":-0.09571066056851196,"55":-0.11323399585935914,"56":-0.14094693947025194,"57":0.043562063035406384,"58":0.03571995763209742,"59":0.020804739269858517,"60":-0.03461386806242843,"61":0.05299555774344509,"62":0.09442741190563413,"63":0.06190605873145187,"64":-0.05796360466442802,"65":-0.08607910329367274,"66":-0.016337121968337948,"67":-0.014633852169821607,"68":-0.022888107570648762,"69":0.07798510673435256,"70":-0.11698966753665006,"71":-0.05649620082100547,"72":-0.022211935450190044,"73":-0.004017486255993601,"74":-0.06468434402679181,"75":-0.04660045453231187,"76":-0.004482782761206923,"77":0.009360710980048946,"78":-0.07434350795642154,"79":-0.06728793692150437,"80":0.03971542826123913,"81":-0.030338183589421894,"82":-0.046831412245325936,"83":-0.03200431133846709,"84":0.06190686596544063,"85":0.12045165273047599,"86":0.0866669132821326,"87":-0.18043268557604206,"88":0.030247759484938224,"89":-0.05878012047963682,"90":-0.007824947825782755,"91":0.012609269411870124,"92":0.10528810553778681,"93":-0.061917573268570954,"94":0.052585894844997386,"95":-0.0963551703361398,"96":0.0491269249947973,"97":0.04815606608249763,"98":-0.08010245743382677,"99":0.06563230009560636,"100":-0.08241232388407234,"101":0.15475888155823309,"102":-0.03109545678752493,"103":-0.04476477434388381,"104":-0.025882954560607047,"105":-0.14370209430269398,"106":-0.022946580813226102,"107":-0.029925569475328807,"108":0.04183676782394932,"109":0.06714551694877609,"110":0.03978993003712776,"111":-0.029525558132771183,"112":0.08882808909611291,"113":-0.11934832535260018,"114":-0.08735042837835309,"115":0.03394818983715626,"116":-0.008682069856302061,"117":0.026757834952666128,"118":-0.0584886483059293,"119":-0.11892063177007785,"120":0.15491319212435106,"121":0.009355151794776624,"122":0.04291191550660048,"123":0.11884867217949008,"124":0.020536872320396533,"125":-0.09928867911474291,"126":-0.057904436312462074,"127":-0.1368943556332213,"128":0.02918005516195605,"129":0.021036722719192172,"130":0.03538718262052328,"131":-0.02729187178295933,"132":0.0052619407140893195,"133":-0.050924221213255974,"134":-0.05757782416871498,"135":0.014219800158367775,"136":0.002719964526637942,"137":0.06250694584263329,"138":0.07776160359577884,"139":0.16873658332619487,"140":0.037674034161630905,"141":-0.027699717385034944,"142":-0.081121771910586,"143":-0.1447927649008938,"144":-0.09293639785547068,"145":-0.003889332301500348,"146":0.059599601703464296,"147":0.17875474136964642,"148":0.052906686602365124,"149":-0.07782546458656607,"150":0.015849080109234852,"151":-0.09915765119162506,"152":-0.0711380000145742,"153":0.21252253115059988,"154":0.08350962399822555,"155":0.12209454509637316,"156":-0.03945270486541161,"157":-0.017098676648718062,"158":0.14069897435659265,"159":-0.08071846347950086,"160":-0.017071435696497047,"161":0.09515106469427902,"162":0.019843217272036588,"163":0.05384016602310407,"164":0.15243556598176022,"165":-0.11819321949865252,"166":0.15291940599719894,"167":-0.14642209299295286,"168":-0.038792946167151794,"169":0.11035919936892753,"170":-0.0662240370059702,"171":0.105918850155303,"172":0.09342611369194545,"173":-0.12855286375355376,"174":-0.11350238792427704,"175":-0.19112267108493658,"176":-0.09344201184355372,"177":0.09227295520014275,"178":-0.05366270795748678,"179":-0.020370756699496013,"180":0.06873765644157523,"181":-0.07618409427406923,"182":0.08403410573549266,"183":-0.1566754505973271,"184":-0.10014723931855551,"185":0.003193166371682842,"186":-0.034640792797814964,"187":-0.2195585077050272,"188":0.013128985013125736,"189":-0.049490905433445295,"190":-0.021992267267574393,"191":-0.016918386991314503,"192":0.07066265548798259,"193":0.01738319745639735,"194":-0.1328579802829176,"195":-0.041272826492310836,"196":-0.03372212639444969,"197":0.10763932654349816,"198":0.15418548531337445,"199":-0.23005985797519307}},{"sx":5,"sy":5,"depth":8,"w":{"0":-0.040390443381159526,"1":0.05322218811276424,"2":0.027719085438038003,"3":-0.006107293226287942,"4":-0.10696452119050738,"5":-0.005656524374628819,"6":-0.05577068533200906,"7":-0.12701248529585005,"8":-0.039810865851715754,"9":-0.08910253697151373,"10":0.09307367267467591,"11":-0.0707451025085628,"12":-0.07322378239964168,"13":-0.2519840682690175,"14":0.019562200243355848,"15":-0.033277217144375676,"16":-0.06613093657830144,"17":-0.007823322085220026,"18":-0.042786903539337395,"19":-0.21654525561588514,"20":0.012027560775505125,"21":0.0013692455560745942,"22":-0.019747661647028344,"23":0.17571353585672328,"24":-0.10053087371227565,"25":0.024025563923719163,"26":-0.15767869053108122,"27":-0.08490686979000475,"28":-0.08715960168509637,"29":-0.07884476485024011,"30":0.01536029999815323,"31":0.06909205661048567,"32":0.04528670064406154,"33":0.0457418682575494,"34":-0.1333682082067939,"35":0.002821391735440139,"36":0.04825727849647323,"37":-0.11633236988374109,"38":-0.000867672670012114,"39":-0.040906288185662894,"40":0.16221988042706867,"41":0.11625636428148035,"42":0.06853606590660129,"43":0.06632165609026669,"44":-0.17027132602279224,"45":-0.10037878209788291,"46":0.13847353523127456,"47":-0.08614155365582966,"48":-0.06303699384711875,"49":-0.21711227201534042,"50":0.10768666051790415,"51":0.12904002378074958,"52":-0.07987926183221793,"53":0.06753130117396128,"54":0.06594892800378788,"55":-0.01716068303165567,"56":-0.008660331260093367,"57":-0.04579859901235105,"58":0.031515153403235116,"59":0.0006185165032647497,"60":0.09841862618977458,"61":0.03774175607737242,"62":-0.21510369143305433,"63":-0.03570721602345621,"64":-0.0741550590096424,"65":-0.158083398677426,"66":-0.01658134998397558,"67":-0.16684610948365772,"68":-0.04166547595694833,"69":0.11199132408379538,"70":0.10105364755709798,"71":-0.03694965948833407,"72":-0.0978746845037329,"73":0.08796823959498645,"74":-0.14958058298041213,"75":-0.18627998642680482,"76":-0.06637487556501186,"77":0.05082608031741901,"78":-0.052859646409623096,"79":-0.09206653761604709,"80":-0.10356321164178747,"81":0.0030422247728490643,"82":-0.08999030225208339,"83":0.12821648333065463,"84":-0.0173833707250103,"85":-0.07276906469059792,"86":0.08824233716249877,"87":-0.12796565598115717,"88":0.16050343250456672,"89":0.055620019120879896,"90":-0.03367925117358848,"91":0.11773095252221238,"92":0.0009581766130671185,"93":-0.07308718182217308,"94":0.1546728733835409,"95":-0.09893516922719352,"96":0.019817347088408356,"97":-0.032033145579506615,"98":0.11896472955621701,"99":0.028080684639555764,"100":-0.06082594154663586,"101":0.22957689061263278,"102":-0.0872900887630359,"103":-0.20956761436186985,"104":-0.002000271768793395,"105":-0.09431604867040529,"106":0.01663405614975826,"107":-0.06476743066956951,"108":-0.08500608780718595,"109":0.21484542860267333,"110":0.08473158449606558,"111":-0.13679047227010635,"112":-0.005434494241003291,"113":0.06600511322172307,"114":0.09265927153430703,"115":-0.2138989950768916,"116":0.04866166703086894,"117":0.06878245757797813,"118":-0.04127476174542879,"119":-0.05686046616320049,"120":-0.031096695581468478,"121":0.05662225520018988,"122":0.011237070799824913,"123":-0.07536274120317629,"124":0.08612142590309334,"125":-0.056613316705877596,"126":-0.09416350406026866,"127":-0.20429182851580385,"128":0.11471809116648479,"129":-0.014029929160241036,"130":-0.09911522829216224,"131":-0.05837814754157445,"132":-0.06907920562657423,"133":-0.06331613816881629,"134":0.11031529226102468,"135":-0.09130758713407489,"136":0.09061915803813445,"137":0.07297029972352453,"138":0.06518676571587458,"139":0.06567465427926547,"140":-0.035526766169254785,"141":-0.020978809472833586,"142":0.09109695925786541,"143":-0.11125144330436172,"144":-0.04623097849453439,"145":0.004902729723181426,"146":0.018415315880311204,"147":0.09004317080209853,"148":-0.10558105647671182,"149":0.06185927514973152,"150":-0.10522193058677824,"151":-0.14112110062011385,"152":0.014884720950823714,"153":-0.0778697358321136,"154":0.04427001123516549,"155":0.01674733642196096,"156":-0.07708330490210671,"157":0.0282496132089361,"158":-0.06391362296774863,"159":-0.234617478716366,"160":-0.049425415965798906,"161":-0.09755575368608672,"162":-0.017482815387201703,"163":0.07515422368621158,"164":-0.02270910034007122,"165":-0.08721057519538003,"166":-0.07747070134140478,"167":-0.14491574482645203,"168":0.0059922259446152796,"169":0.11448435377477652,"170":-0.09963373119736034,"171":0.08582167008423805,"172":0.015868394733418254,"173":-0.14541417260313874,"174":-0.06548125514159965,"175":-0.1262681204345476,"176":0.042094795088965874,"177":0.11359674571173212,"178":0.05151063865408485,"179":0.15318393941502553,"180":0.1281866777312667,"181":-0.06374858615496216,"182":0.010639465547300388,"183":-0.04114445956525978,"184":-0.01670072627772107,"185":0.21788167300812608,"186":-0.03048916461679179,"187":-0.0163501082795988,"188":-0.03549669554150683,"189":-0.15859151351469986,"190":0.1759812690195122,"191":-0.05529876375004361,"192":0.09745742033908752,"193":0.12452206555936346,"194":0.07909858043838772,"195":0.1163937382670299,"196":-0.017859907217243502,"197":-0.1156754373330007,"198":0.1496229783541988,"199":-0.09186325268303384}}],"biases":{"sx":1,"sy":1,"depth":16,"w":{"0":0.04994170731743259,"1":0.06997073122021702,"2":0.08150364752084933,"3":0.07391729470399565,"4":0.06284017755690306,"5":0.06965977131298358,"6":0.05793301282620169,"7":0.045764109921831136,"8":0.05578697550244087,"9":0.07656539845911914,"10":0.08993014410220262,"11":0.07253186826003864,"12":0.05947671565643387,"13":0.043582045589431094,"14":0.0607766835861294,"15":0.0770974716947995}}},{"out_depth":16,"out_sx":12,"out_sy":12,"layer_type":"relu"},{"sx":3,"sy":3,"stride":3,"in_depth":16,"out_depth":16,"out_sx":4,"out_sy":4,"layer_type":"pool","pad":0},{"out_depth":10,"out_sx":1,"out_sy":1,"layer_type":"fc","num_inputs":256,"l1_decay_mul":0,"l2_decay_mul":1,"filters":[{"sx":1,"sy":1,"depth":256,"w":{"0":0.07932852243982173,"1":-0.01683283575366451,"2":0.00953380783540424,"3":0.10638588466250634,"4":-0.019945885668508356,"5":0.018785338580939663,"6":0.011002975307364441,"7":-0.12789887246787987,"8":-0.05480598800279771,"9":0.0400613602875147,"10":-0.019601712622535867,"11":0.05269514284761821,"12":-0.03273215017358699,"13":0.09243192100124717,"14":0.036218863898164824,"15":-0.1393209534083328,"16":0.0033983905027178025,"17":0.008453460006516592,"18":-0.05334162343534824,"19":0.06838116241202524,"20":0.03976734666101377,"21":0.018134866296054805,"22":-0.09901124677819939,"23":0.08104310957443019,"24":-0.009909504733110367,"25":0.03091908234769846,"26":0.04672804083867086,"27":-0.16909154299373705,"28":-0.18798037463390585,"29":-0.09879594158159,"30":0.03382321630389489,"31":-0.04117821502491163,"32":-0.026014775338116462,"33":0.04646606597128382,"34":-0.07977836918944269,"35":0.01118943630380896,"36":0.11325480483649822,"37":0.0760872913753429,"38":-0.0872512200725641,"39":-0.03285006653809672,"40":-0.04075435917246838,"41":-0.012291690666886854,"42":0.10523938046293094,"43":-0.11087496108375831,"44":-0.09175718732204899,"45":-0.07924934619960623,"46":-0.07422240179328313,"47":0.08596863401530627,"48":-0.09430565142914415,"49":0.09881321817358221,"50":0.05588479496711555,"51":-0.06271432621133023,"52":-0.032802692052201814,"53":-0.02542681633510922,"54":-0.07193696418603371,"55":-0.06714894085439414,"56":0.04072299522032716,"57":-0.03376707754208986,"58":-0.0006760246397299483,"59":-0.10560860691137978,"60":0.05458408869434288,"61":-0.1334441420200063,"62":0.033689081993378805,"63":0.07875475809624191,"64":-0.04400337512409194,"65":0.07438350536823966,"66":-0.09895981314061962,"67":0.051656945509566884,"68":0.11749811540484348,"69":-0.06057040527150029,"70":0.11843461072814643,"71":-0.06774774329260408,"72":0.04788776625985101,"73":-0.027268642536338063,"74":0.020863355440380454,"75":0.06916224078930851,"76":-0.22772581274340015,"77":-0.14565376477291447,"78":0.00744061345576828,"79":-0.04412806716337491,"80":-0.1426983977730527,"81":-0.023223500450733466,"82":0.09274303552108489,"83":-0.08595880326041508,"84":-0.09593767953463167,"85":0.00369789412358477,"86":0.01338270473718373,"87":-0.1373264157808378,"88":0.08774022607332413,"89":-0.10907009610227493,"90":0.01046938548729046,"91":0.0796998449166657,"92":-0.1641606399689343,"93":-0.05912614071143212,"94":-0.045845424004950314,"95":-0.11097929682918593,"96":0.01954684828063607,"97":-0.05938420400075396,"98":-0.08548815390887864,"99":-0.07358485158486631,"100":-0.02345886433008262,"101":0.010073090335686877,"102":-0.09308066388347827,"103":-0.01537780260447709,"104":-0.05612145310851856,"105":-0.08887304148582423,"106":-0.08843541958583534,"107":-0.021283232804940693,"108":0.21570614206289412,"109":0.15653993140858952,"110":-0.011985018235951871,"111":-0.06477191417447506,"112":0.021291962864632336,"113":0.01921279820713648,"114":0.019956302971738345,"115":0.04331348882187937,"116":-0.04656405423085207,"117":-0.037025926051125375,"118":-0.02399770571524608,"119":0.028042667048639114,"120":0.03824656238553632,"121":0.1172852182796714,"122":-0.030730615281297915,"123":0.1859779490606785,"124":-0.008496184425899195,"125":-0.008752035093625567,"126":-0.07099435939887672,"127":0.14485030241070151,"128":0.00940164408195646,"129":-0.02280950244651998,"130":-0.01748910724058406,"131":-0.08534567959385629,"132":0.06521644858214284,"133":-0.05629981888224346,"134":0.04487084163249811,"135":-0.021451582408334925,"136":-0.028914891713902807,"137":0.024379672534433062,"138":-0.09728497820999642,"139":0.19160265665303794,"140":-0.029544958275928557,"141":-0.10578736816365024,"142":0.0975757902962967,"143":-0.05216691647980688,"144":-0.0479044815372514,"145":0.035800754005934805,"146":-0.06463335113283555,"147":-0.13713510446306587,"148":-0.03763758423712233,"149":-0.06846724692793502,"150":-0.0004637402938410111,"151":0.014596643104333843,"152":0.04441151810661348,"153":0.013536305974419995,"154":-0.12284971302900434,"155":0.007519324840664053,"156":-0.173773245575555,"157":-0.10748590060348048,"158":-0.15904977615706858,"159":0.13058347941284387,"160":-0.0591995104724645,"161":-0.00834758658435588,"162":0.05328993764266311,"163":-0.02106008731710984,"164":0.05747720952595424,"165":-0.06187030084458226,"166":0.07433572332257295,"167":-0.041460868391508046,"168":-0.008066781768174517,"169":-0.08819556492541253,"170":0.08196263016810561,"171":0.03318277002838379,"172":0.01546799831282457,"173":0.0007053054201923303,"174":0.041819290633433516,"175":-0.1384664606564005,"176":0.02601087102198121,"177":0.07849011763058723,"178":0.025627862196415746,"179":-0.24405974062687044,"180":-0.011306418119168115,"181":-0.022913833600212413,"182":0.11099505161516178,"183":-0.03877244983478417,"184":-0.15954556165080364,"185":0.1955558423129987,"186":-0.08990973093248318,"187":0.13912529514922425,"188":-0.03613687592845834,"189":-0.052842950909119946,"190":-0.06089323539364305,"191":-0.026597729963097866,"192":-0.003572947770114622,"193":-0.004948282803944237,"194":-0.00346926894126871,"195":-0.1515721314469354,"196":-0.039216201270967255,"197":0.07184075762385563,"198":0.127577100688146,"199":-0.07415470707667574,"200":-0.03796608300603202,"201":-0.009799498138023032,"202":-0.18970619694277344,"203":-0.10390722699006956,"204":0.05832098636255435,"205":0.10899214685171917,"206":-0.05655265336789744,"207":-0.05412193254040449,"208":0.029544414123848468,"209":0.07252974326748408,"210":-0.035807488484537346,"211":0.06694540900742565,"212":-0.14474182754961526,"213":-0.04456289187961342,"214":0.018078807313630683,"215":0.18296286752535226,"216":-0.016496991974046932,"217":0.217710352153285,"218":-0.02628378414681993,"219":-0.0007005304991124884,"220":-0.040583140519262095,"221":0.04576437765095357,"222":-0.029140980631063497,"223":0.08148805286943946,"224":0.013906869018005481,"225":0.08312770880974478,"226":0.08674557506668909,"227":0.0011077296425403406,"228":0.06271912263887322,"229":0.003216422253992435,"230":-0.15005876576910776,"231":0.08241036547561824,"232":0.15742147783779323,"233":-0.040130918570234174,"234":0.11582089352086707,"235":-0.042185533521137845,"236":-0.12570061965012244,"237":-0.031231743891561525,"238":0.11926929907258091,"239":-0.017652836580547945,"240":0.049520769913226355,"241":-0.06759579199135372,"242":-0.03552632698095721,"243":0.09545227128999188,"244":-0.062371598413971434,"245":0.046445308357836515,"246":-0.09942134119898771,"247":-0.06669241280142205,"248":-0.05316420236572657,"249":-0.0682177525551712,"250":-0.005781562918998647,"251":0.03835512873244788,"252":0.04777537055816192,"253":0.05842180667671182,"254":-0.06431904158058276,"255":-0.1249599633656977}},{"sx":1,"sy":1,"depth":256,"w":{"0":-0.03327880924276839,"1":0.03160944947266421,"2":-0.03589382785515561,"3":-0.07391360711541602,"4":-0.08654573689791899,"5":-0.11407895785728087,"6":0.017495201176240316,"7":-0.012198402128440752,"8":0.03125945150463812,"9":-0.11719978618376749,"10":-0.07219424190998398,"11":-0.01187915621207131,"12":-0.1299786437816952,"13":-0.049327325420866736,"14":-0.0737894786033855,"15":-0.050678191253463824,"16":0.04307858815806117,"17":-0.15711757678634763,"18":0.07877539119328826,"19":0.04122084326106855,"20":0.06167006956278013,"21":-0.06775477523596013,"22":0.07046863160368734,"23":-0.007721900926574578,"24":0.11386045734491597,"25":-0.019742372715438522,"26":0.0028581475371714693,"27":0.04786176405305624,"28":0.024090431808073784,"29":0.060908991616914904,"30":-0.09201384005578493,"31":-0.12715710434129698,"32":0.10461948769058382,"33":-0.01657600723252478,"34":0.01080309579603662,"35":0.1334667733644479,"36":0.16081873438940436,"37":-0.03872808024239721,"38":-0.05279601175556088,"39":-0.0607986203937687,"40":-0.028322288857219487,"41":-0.03506886006721075,"42":0.03590441413046835,"43":0.137787896717141,"44":0.035108582549968424,"45":0.015668368440980667,"46":-0.019275359928866174,"47":0.025501312405418083,"48":-0.1673254181968024,"49":-0.048373942732784295,"50":-0.06840589475997945,"51":0.007576810649504228,"52":-0.1101746822147034,"53":-0.10175394059897726,"54":0.011539519865971045,"55":-0.0036936877861496304,"56":0.10144863783146574,"57":-0.06555536295549469,"58":-0.05816935969155807,"59":-0.018742885848216186,"60":0.15010766560781927,"61":-0.037616506236277075,"62":0.03305266958132441,"63":-0.1603912461692274,"64":-0.013112895718238022,"65":0.08025024766007174,"66":-0.15405354295255308,"67":-0.1401008905644375,"68":-0.24748773932551002,"69":0.00521366717969305,"70":0.0010237762615768352,"71":0.08654490806581353,"72":0.012331440003517814,"73":-0.06743577233197938,"74":-0.15357088335740043,"75":-0.22382865631938972,"76":-0.1702725224594469,"77":-0.13615616294871632,"78":-0.1484544583970277,"79":-0.0631633513523666,"80":-0.10490168421446809,"81":-0.006082438424089828,